3167 0.0152167 0.0150442 0.0235974 0.0943775 0.10381 0.0707133 0.0585369 0.03412 0.0299806 0.0254882 0.0371859 0.0332763 0.0294308 0.0217194 0.034562 0.0250218 0.0244456 0.0184866 0.0147419 0.0128332 0.0116402 0.0107419 0.0113527 0.00932882 0.00922669
threshold=76687.187500000015 94191.445312500015 2.5000000000000004 29.500000000000004 1.0000000180025095e-35 77.500000000000014 72.500000000000014 14.500000000000002 -1.0000000180025095e-35 5.5000000000000009 84471.722656250015 13.500000000000002 80698.996093750015 86708.437500000015 94386.484375000015 91380.812500000015 16.500000000000004 1.0000000180025095e-35 1.0000000180025095e-35 74998.589843750015 76519.230468750015 23.500000000000004 2.5000000000000004 65.000000000000014 86885.781250000015 84426.269531250015 96.000000000000014 92880.816406250015 1.0000000180025095e-35 74219.406250000015
decision_type=2 2 2 2 2 2 2 2 2 2 2 2 2 2 2 2 2 2 2 2 2 2 2 2 2 2 2 2 2 2
left_child=-1 6 3 24 5 -4 18 8 9 25 -11 13 -13 -10 15 17 -16 -9 19 21 -20 29 -17 -5 -3 -8 28 -28 -25 -2
right_child=1 2 4 23 -6 -7 7 14 11 10 -12 12 -14 -15 16 22 -18 -19 20 -21 -22 -23 -24 26 -26 -27 27 -29 -30 -31
leaf_value=0.00077866653161099949 7.6973442778488943e-06 0.00088325221199994045 -0.00037762536813605856 0.00033007459543090881 0.001392680519236672 0.00090083800015784124 -0.00036770152891371757 -0.00030920610349912948 -0.00018213086194362587 -0.00016176339628763109 -0.0044273990032779069 -0.0026569305729425125 0.00018858405495127879 0.00092081957399150853 0.00064702423666576593 0.0020353820652873559 -0.0018779267552652753 0.00024123913257371936 -0.00033489380449033417 -0.00036956121135134676 0.001724747034946275 -0.00020882946760588324 8.2952484542842496e-05 -0.00032470493555225084 -0.0002260682140151019 0.0011294267914307755 0.00024038599176464916 -0.00084998043953130693 -0.0019074489421537018 0.0023254310407843379
leaf_weight=5.900000035762786 2.6000000238418561 25.500000178813934 20.000000238418583 12.000000119209288 14.700000226497648 6.7000001072883597 3.9000000357627895 223.50000208616257 67.300000607967377 6.6000000238418561 7.9000000357627869 4.9000000357627851 4.8000000715255737 31.600000262260437 2.9999999999999991 5.400000095367429 8.200000047683714 174.60000169277191 5.5000000596046439 58.40000057220459 10.100000083446501 6.5000000596046448 10.00000011920929 12.900000035762789 11.40000009536743 3.9000000357627869 18.600000143051151 8.1000000834465009 4.600000023841857 3.2000000476837158
leaf_count=8 4 36 34 19 28 13 6 346 103 8 10 7 9 47 3 11 11 274 9 92 15 10 17 15 17 6 27 13 6 6
internal_value=-3.83013e-05 -5.31393e-05 0.000193443 -6.73622e-05 0.000700923 6.98241e-05 -0.000107188 -0.000169957 -0.000537035 -0.00213022 -0.00326687 -7.89243e-05 -0.00178973 0.000210712 -4.78446e-05 5.18971e-06 -0.00119487 -6.68736e-05 0.000272462 -7.23334e-06 0.00111862 0.00115138 0.00125575 -0.000499642 0.000553643 0.000553756 -0.000748569 -0.000202634 -0.00123434 0.00192859
internal_weight=782.3 776.4 134.5 93.1 41.4 26.7 641.9 555.6 130.9 22.3 14.5 108.6 9.7 98.9 424.7 413.5 11.2 398.1 86.3 70.7 15.6 12.3 15.4 56.2 36.9 7.8 44.2 26.7 17.5 5.8
internal_count=1210 1202 208 133 75 47 994 858 196 30 18 166 16 150 662 648 14 620 136 112 24 20 28 80 53 12 61 40 21 10
is_linear=0
shrinkage=0.0324476


Tree=478
num_leaves=31
num_cat=0
split_feature=11 0 14 0 15 17 12 12 15 1 15 8 15 4 15 8 10 9 9 15 9 17 11 11 15 13 5 13 12 11
split_gain=0.00892007 0.0173721 0.00956051 0.0180925 0.0269492 0.0183958 0.0147036 0.0144102 0.0231734 0.0910264 0.100815 0.0826841 0.0569695 0.0398592 0.057274 0.0477452 0.0396526 0.0333185 0.0329333 0.0395456 0.0284307 0.020899 0.0188097 0.0326073 0.0170804 0.0143067 0.0139959 0.0139192 0.0127538 0.0122583
threshold=77380.816406250015 1.5000000000000002 94191.445312500015 2.5000000000000004 29.500000000000004 1.0000000180025095e-35 77.500000000000014 72.500000000000014 14.500000000000002 -1.0000000180025095e-35 5.5000000000000009 84579.824218750015 13.500000000000002 1.0000000180025095e-35 49.500000000000007 81562.632812500015 78653.542968750015 80698.996093750015 78198.953125000015 20.500000000000004 86708.437500000015 1.0000000180025095e-35 79234.265625000015 79188.808593750015 23.500000000000004 65.000000000000014 -1.0000000180025095e-35 99.500000000000014 9.5000000000000018 86885.781250000015
decision_type=2 2 2 2 2 2 2 2 2 2 2 2 2 2 2 2 2 2 2 2 2 2 2 2 2 2 2 2 2 2
left_child=1 -1 7 4 29 6 -5 21 9 10 -9 -12 20 18 15 -15 -16 -14 24 -20 -11 22 23 28 -10 -6 -23 -28 -2 -4
right_child=2 -3 3 5 25 -7 -8 8 13 12 11 -13 17 14 16 -17 -18 -19 19 -21 -22 26 -24 -25 -26 -27 27 -29 -30 -31
leaf_value=-0.00054372040595641999 -0.0010730432702154684 0.0013019538450689124 0.0008616191247223274 -0.00036896056006982569 0.000323737933138939 0.0013637765109694557 0.00088776647459154977 0.00054776241486746116 0.0012417057623065669 -0.00017686875074663928 0.00046147749873787957 -0.0040537338996539116 -0.0026248851603862746 -0.00047462119570751199 -0.001668534137366654 0.0019488015790412596 0.00058603637817421087 0.00018633890588938765 -0.00097028539932166079 -9.6019129154323782e-05 0.00089714599120238451 -0.00034187095002262836 -0.00037463074099725616 0.0019235430424395252 0 -0.00073906225144581878 -0.00014799132731823216 0.0017557476808649317 0.00028169123526147955 -0.00022181952832388635
leaf_weight=2.6000000238418561 2.3000000119209334 5.5000000596046448 25.500000178813934 20.000000238418583 12.000000119209288 14.700000226497648 6.7000001072883597 7.8000000715255764 15.900000154972075 67.300000607967377 3.3000000119209263 11.200000047683716 4.9000000357627851 7.4000000953674308 7.5000000596046474 26.100000321865082 10.40000009536743 4.8000000715255737 60.900000512599945 273.40000259876251 31.600000262260437 2.3000000119209281 46.300000369548798 4.1000000834465018 23.100000202655792 44.200000286102295 3.2000000476837132 10.100000083446503 15.800000190734863 11.40000009536743
leaf_count=4 3 9 36 34 19 28 13 12 25 103 4 14 7 13 11 45 16 9 91 426 47 3 68 9 35 61 6 15 27 17
internal_value=-3.72838e-05 0.000711323 -5.304e-05 0.000187197 -7.00922e-05 0.000688543 7.12311e-05 -0.000105875 -0.000166678 -0.000530427 -0.00209513 -0.00321553 -8.02365e-05 -4.56995e-05 0.000733927 0.00141656 -0.000573322 -0.00176787 -0.000167627 -0.000275984 0.000205614 0.000270701 -1.07833e-05 0.000631395 0.000638929 -0.000493898 0.00109746 0.00139936 -0.000159106 0.000539319
internal_weight=782.3 8.1 774.2 134.5 93.1 41.4 26.7 639.7 555.6 130.9 22.3 14.5 108.6 424.7 51.4 33.5 17.9 9.7 373.3 334.3 98.9 84.1 68.5 22.2 39 56.2 15.6 13.3 18.1 36.9
internal_count=1210 13 1197 208 133 75 47 989 858 196 30 18 166 662 85 58 27 16 577 517 150 131 107 39 60 80 24 21 30 53
is_linear=0
shrinkage=0.0324476


Tree=479
num_leaves=31
num_cat=0
split_feature=10 16 8 7 7 8 8 7 6 6 7 10 8 10 10 10 7 6 1 7 10 7 6 4 8 7 6 6 7 6
split_gain=0.00885488 0.03644 0.0691467 0.123966 0.0407892 0.077927 0.0390591 0.0345797 0.0708392 0.0530417 0.0245958 0.0612648 0.0284028 0.0264275 0.0575192 0.0510804 0.0374746 0.0366601 0.0330888 0.0273785 0.0329487 0.0313168 0.0265189 0.0245302 0.0358985 0.0346178 0.101544 0.0223968 0.017348 0.0164465
threshold=104565.07812500001 1.0000000180025095e-35 89289.906250000015 159616.75390625003 111693.44140625001 91380.812500000015 117312.33593750001 64765.328125000007 1.5000000000000002 5.5000000000000009 159616.75390625003 82344.914062500015 89289.906250000015 81150.078125000015 82344.914062500015 79235.242187500015 66816.148437500015 4.5000000000000009 -1.0000000180025095e-35 73206.855468750015 85690.617187500015 79147.144531250015 2.5000000000000004 1.0000000180025095e-35 84312.632812500015 78471.726562500015 3.5000000000000004 3.5000000000000004 77971.679687500015 2.5000000000000004
decision_type=2 2 2 2 2 2 2 2 2 2 2 2 2 2 2 2 2 2 2 2 2 2 2 2 2 2 2 2 2 2
left_child=7 4 3 28 23 -6 -4 8 -1 29 13 -12 -13 15 -15 16 18 -18 -9 20 -16 -21 -17 24 -2 26 -26 -27 -3 -10
right_child=1 2 6 -5 5 -7 -8 10 9 -11 11 12 -14 14 19 22 17 -19 -20 21 -22 -23 -24 -25 25 27 -28 -29 -30 -31
leaf_value=0.0011021371694312822 0.0002607405897259183 -0.0011316455966856147 0.00069146974115127783 -0.0043819860093610398 0.003150657245016997 -0.0002692361651760103 -0.0015299283939730773 -0.000495832636230178 -0.00022819000796995214 0.00023081409972992839 -0.00066975984432884146 0.0031286087939156873 0.00044856059171307819 -0.0023195313700631946 -0.0017944049185527975 0.0026288327858310315 0.00023021282096213864 -0.0012650189060706392 0.0021397220827546028 0.00040162282474910703 0.00053514561625950187 -0.00015925651794813 -0.00013229978556337471 0.001305182816905144 -0.0036553022514060501 0.00031859187940174095 0.00078861257697587729 -0.0009980740839034526 0.00032607673839911655 -0.0037181453463561148
leaf_weight=4.6000000238418606 52.500000536441803 5.200000047683722 27.90000027418137 4.600000023841857 3.9000000357627895 13.40000009536743 2.600000023841857 3.300000011920929 3.200000047683714 5.5000000596046448 11.000000119209291 3.0000001192092887 12.700000107288359 3.5000000596046439 10.200000166893004 6.9000000357627851 56.900000512599945 15.300000131130217 7.1000000834465009 151.10000151395798 4.8000000715255728 297.40000247955322 3.5000000596046448 2.600000023841857 4.9000000357627851 24.400000214576721 4.9000000357627869 15.600000143051146 16.200000166893005 3.6000000238418579
leaf_count=6 84 8 44 6 6 19 4 4 6 9 18 10 19 7 20 9 87 23 12 240 9 443 7 4 7 37 7 24 26 5
internal_value=-3.58156e-05 -0.000231163 -0.000854463 -0.0018588 9.01018e-05 0.00125753 0.000206176 2.37536e-05 -0.00115347 -0.00211925 7.38767e-05 0.000908892 0.00187987 2.07403e-05 -8.02963e-05 0.000496865 0.000131718 -0.000179572 0.00143436 -2.21717e-05 -0.0011077 3.27416e-05 0.00203289 -0.00017706 -0.000313045 -0.000875302 -0.00206919 -0.000270287 -0.000232467 -0.00312778
internal_weight=782.3 178.7 56.5 26 122.2 17.3 30.5 603.6 16.9 12.3 586.7 26.7 15.7 560 467 93 82.6 72.2 10.4 463.5 15 448.5 10.4 104.9 102.3 49.8 9.8 40 21.4 6.8
internal_count=1210 276 88 40 188 25 48 934 26 20 908 47 29 861 719 142 126 110 16 712 29 683 16 163 159 75 14 61 34 11
is_linear=0
shrinkage=0.0324476


Tree=480
num_leaves=31
num_cat=0
split_feature=10 15 15 7 7 15 15 7 15 8 6 15 7 6 6 15 10 6 15 10 15 4 15 15 16 6 8 15 7 15
split_gain=0.00878383 0.0463895 0.062091 0.0575527 0.165766 0.0620883 0.130669 0.128559 0.0512446 0.0467711 0.0341446 0.0340191 0.0339499 0.0693773 0.0519856 0.0266562 0.0242701 0.0204292 0.0598086 0.094501 0.172709 0.0503837 0.0306996 0.077911 0.0847518 0.0756317 0.0605528 0.0388158 0.0290461 0.0320987
threshold=104565.07812500001 12.500000000000002 14.500000000000002 78471.726562500015 74219.406250000015 29.500000000000004 45.500000000000007 159616.75390625003 19.500000000000004 117312.33593750001 4.5000000000000009 24.500000000000004 64765.328125000007 1.5000000000000002 5.5000000000000009 22.500000000000004 101422.84375000001 1.5000000000000002 26.500000000000004 81791.082031250015 11.500000000000002 1.0000000180025095e-35 23.500000000000004 16.500000000000004 1.5000000000000002 2.5000000000000004 83199.000000000015 15.500000000000002 89226.136718750015 58.500000000000007
decision_type=2 2 2 2 2 2 2 2 2 2 2 2 2 2 2 2 2 2 2 2 2 2 2 2 2 2 2 2 2 2
left_child=12 -2 -3 4 -4 8 7 -7 -5 -8 -10 -6 13 -1 15 -15 17 18 19 20 -14 -21 23 27 -25 26 -24 -19 -20 -30
right_child=1 2 3 5 11 6 9 -9 10 -11 -12 -13 16 14 -16 -17 -18 22 28 21 -22 -23 25 24 -26 -27 -28 -29 29 -31
leaf_value=0.0010893673894383971 0.0011848406677190354 -0.0026452285566689994 0.00016935468454982614 -0.00021546050023831735 2.5353053623776554e-06 -0.00036659473323796539 0.00085386663184107967 -0.0046781339594459629 0.002400324880674409 -0.0014097198835389697 -0.00028545164796730876 -0.0043140847392258196 -0.00133561408524542 -0.0037203116525802607 0.00022782537599050725 0 0.001399967431606581 2.4992699490969823e-05 -0.0014181415256850395 9.8534747008555506e-05 0.0043459392744648545 -0.0021094136506261195 -0.0010714276468478032 -0.0018599141397420303 0.00082121330771620983 5.2704156244084012e-05 0.0016608109034093636 0.0015483796444635378 0.0011688962845114749 -0.00093943359729040425
leaf_weight=4.6000000238418606 13.700000107288359 3.900000035762786 31.300000369548798 16.200000166893005 1.999999999999998 23.600000262260441 53.500000417232513 3.600000023841857 16.90000015497208 3.600000023841857 3.900000035762786 6.5000000596046448 4.3000000119209272 4.200000047683714 5.5000000596046448 2.6000000238418579 5.900000035762786 140.1000012755394 41.300000369548798 67.40000057220459 5.5000000596046448 4.5000000596046439 3.9999999999999991 36.400000333786011 11.500000178813933 187.90000182390213 52.000000476837158 12.000000119209288 7.1000000834465009 6.8000000715255737
leaf_count=6 20 6 53 26 2 39 78 5 26 5 6 10 5 7 9 4 8 215 63 101 9 8 4 56 22 295 80 19 12 11
internal_value=-3.63434e-05 -0.000230899 -0.000401618 -0.000218409 -0.0011708 0.000146055 -0.000341808 -0.00190655 0.00112506 0.000544938 0.00194601 -0.00377613 2.29908e-05 -0.00114345 -0.002099 -0.00309741 7.26682e-05 3.90568e-05 -0.000295608 0.000257964 0.00236242 -0.000238605 0.000146619 -0.000147036 -0.0011834 0.000385822 0.00134693 0.000221265 -0.00104759 0.000154971
internal_weight=782.3 178.7 165 161.1 39.8 121.3 84.3 27.2 37 57.1 20.8 8.5 603.6 16.9 12.3 6.8 586.7 580.8 136.9 81.7 9.8 71.9 443.9 200 47.9 243.9 56 152.1 55.2 13.9
internal_count=1210 276 256 250 65 185 127 44 58 83 32 12 934 26 20 11 908 900 209 123 14 109 691 312 78 379 84 234 86 23
is_linear=0
shrinkage=0.0324476


Tree=481
num_leaves=31
num_cat=0
split_feature=11 0 7 6 8 11 6 5 16 15 15 15 11 0 11 7 5 7 4 7 8 11 7 6 15 6 8 13 8 5
split_gain=0.00907823 0.00997163 0.0124416 0.0658372 0.102124 0.104132 0.101918 0.119309 0.079162 0.0763863 0.0740497 0.0455119 0.0246262 0.0404259 0.0375247 0.0934187 0.134663 0.0310703 0.110213 0.0620991 0.0207788 0.0179178 0.00784942 0.00928503 0.00516133 0.00369787 0.00293593 0.00292427 0.00208702 0.00178115
threshold=76687.187500000015 1.5000000000000002 99351.253906250015 3.5000000000000004 91380.812500000015 92880.816406250015 4.5000000000000009 -1.0000000180025095e-35 3.5000000000000004 53.500000000000007 46.500000000000007 92.500000000000014 95025.933593750015 2.5000000000000004 91883.128906250015 88139.570312500015 -1.0000000180025095e-35 84426.269531250015 1.0000000180025095e-35 84088.066406250015 115480.47656250001 96153.542968750015 74665.257812500015 1.5000000000000002 53.500000000000007 4.5000000000000009 101484.38671875001 65.000000000000014 138307.51953125003 1.0000000180025095e-35
decision_type=2 2 2 2 2 2 2 2 2 2 2 2 2 2 2 2 2 2 2 2 2 2 2 2 2 2 2 2 2 2
left_child=29 22 12 4 5 8 7 -5 -4 -9 21 -12 14 -14 17 16 -16 19 -19 -3 26 -8 -2 -24 -7 -17 -6 -25 -22 -1
right_child=1 2 3 6 20 24 10 9 -10 -11 11 -13 13 -15 15 25 -18 18 -20 -21 28 -23 23 27 -26 -27 -28 -29 -30 -31
leaf_value=0.00097681617331512476 0.00026838860150301655 -1.6842073053570242e-05 0.0043042888964173933 0.0011852639535278049 -0.001290225713864843 0.0003287876881678635 0.0019897862451742922 -0.0044497704922092695 -0.00037782018166863799 -4.5963521631436132e-05 -0.0015744823780771235 0.000445578680631492 -0.00056320712261550643 0.0018928180561754624 0.00090739796934480397 0.00077798529422113565 -0.0042261314523419028 -0.00090076929615142461 0.0014244434570130321 0.0018576623967254899 0 -0.00010348048270915851 0.00032389178949809578 -3.9831010466059136e-05 -0.00053008756854558772 -0.00011141372908899243 -0.00018336733688219532 -0.0012319160963071485 0.00074300767223055893 0
leaf_weight=2.600000023841857 3.7000001072883633 454.20000410079956 11.100000202655794 4.2000000476837185 7.5000000596046466 11.100000083446501 15.30000013113022 6.800000071525572 2.9999999999999991 6.2000000476837158 13.700000107288359 18.900000154972076 6.900000035762786 8.1000000834465009 4.4000000953674316 9.800000071525572 6.8000000715255755 109.50000089406967 18.400000095367432 11.100000083446501 5.200000047683714 3.900000035762786 1.8000000715255762 3.8000000715255799 3.600000023841857 3.3000000119209281 7.9000000357627869 12.300000369548792 3.9000000357627869 3.300000011920929
leaf_count=4 10 695 23 7 11 16 23 11 3 9 20 28 9 13 10 14 11 162 24 16 8 6 6 8 5 4 10 34 6 4
internal_value=-3.82974e-05 -5.30609e-05 -2.91981e-05 0.000259139 0.00103978 0.00212674 -0.000385849 -0.00207923 0.00352021 -0.0032023 0.000379318 -0.000541187 -8.81632e-05 0.000948533 -0.000126164 -0.00119944 -0.0026618 -6.56659e-05 -0.000497226 5.87916e-05 -0.000441039 0.00164794 -0.00063521 -0.000862084 0 0.00058008 -0.00100091 -0.00107499 0.00051039 0.000774547
internal_weight=782.3 776.4 754.8 122.3 53.3 28.8 69 17.2 14.1 13 51.8 32.6 632.5 15 617.5 24.3 11.2 593.2 127.9 465.3 24.5 19.2 21.6 17.9 14.7 13.1 15.4 16.1 9.1 5.9
internal_count=1210 1202 1144 186 82 47 104 27 26 20 77 48 958 22 936 39 21 897 186 711 35 29 58 48 21 18 21 42 14 8
is_linear=0
shrinkage=0.0324476


Tree=482
num_leaves=31
num_cat=0
split_feature=10 15 15 15 15 15 15 8 9 8 3 10 15 9 10 5 4 8 8 15 14 15 8 11 8 12 16 9 8 15
split_gain=0.0089791 0.0453463 0.0601989 0.0501411 0.152139 0.0855256 0.0953583 0.0516746 0.0395771 0.0526051 0.0435543 0.0220785 0.0181142 0.0914537 0.109066 0.116081 0.146701 0.0971559 0.111603 0.0413077 0.0284936 0.0324905 0.0534093 0.0250183 0.0229223 0.021577 0.0220293 0.0194507 0.0194007 0.0173337
threshold=104565.07812500001 12.500000000000002 14.500000000000002 23.500000000000004 26.500000000000004 29.500000000000004 42.500000000000007 84579.824218750015 89923.683593750015 92828.964843750015 1.0000000180025095e-35 101422.84375000001 30.500000000000004 86708.437500000015 81791.082031250015 1.0000000180025095e-35 1.0000000180025095e-35 88876.269531250015 84579.824218750015 44.500000000000007 94191.445312500015 36.500000000000007 84926.269531250015 87289.906250000015 84363.054687500015 72.500000000000014 2.5000000000000004 97158.113281250015 84579.824218750015 20.500000000000004
decision_type=2 2 2 2 2 2 2 2 2 2 2 2 2 2 2 2 2 2 2 2 2 2 2 2 2 2 2 2 2 2
left_child=11 -2 -3 8 7 -6 -7 -5 9 10 -4 12 13 -1 15 24 -17 18 -16 20 21 28 -23 27 -15 -25 -27 -21 -14 -10
right_child=1 2 3 4 5 6 -8 -9 29 -11 -12 -13 19 14 17 16 -18 -19 -20 23 -22 22 -24 25 -26 26 -28 -29 -30 -31
leaf_value=9.3057524271324718e-05 0.0011669468001703114 -0.0026114545068424799 5.6674137933340178e-05 -6.3575095598461669e-05 0.0022141164592960096 -0.0018587032121870426 0.00016479136620313185 -0.0048109392485417958 -0.00097881435064530245 -0.0010380524864108229 0.0026516595657988047 0.0012334270060419675 -0.00079426831487587612 0 -0.00011329144440521214 -0.003882702771175884 0.0007227770199068757 0.00058134515282111127 -0.0048880574522546056 -0.00046063650465480644 -0.00019216638924510093 0.0025104497410044571 -0.00042150168337555169 -0.00036134213061169942 0.0019195771153098632 0.0015465914805906998 -0.00019388301001939691 0.00046263431006781248 0.00067666471414271263 0.00058575486567027046
leaf_weight=294.30000275373459 13.700000107288359 3.900000035762786 11.100000083446506 3.600000023841857 6.2000000476837149 26.300000250339508 79.400000691413879 2.6000000238418579 11.600000143051149 2.900000035762786 12.600000143051147 7.2000000476837149 5.6000000238418606 9.8000000715255737 8.0000001192092931 6.0000000000000009 10.300000131130219 5.2000000476837149 9.8000000715255737 110.90000110864639 18.800000071525574 18.300000131130222 5.600000023841857 11.900000154972075 12.300000131130219 16.200000166893009 8.200000047683714 22.600000262260437 22.600000262260437 4.8000000715255728
leaf_count=456 20 6 16 5 9 41 120 4 20 5 21 10 7 14 15 6 18 8 14 176 23 26 7 21 20 26 11 38 38 9
internal_value=-3.64422e-05 -0.00023315 -0.000401777 -0.000221001 -0.000560781 -0.000141583 -0.000433883 -0.00369301 0.000644771 0.00128614 0.00177739 2.3551e-05 -7.13091e-06 -0.000153512 -0.00121132 -3.51195e-05 -0.00169427 -0.00263389 -0.00347384 0.000205597 0.000818373 0.00116555 0.00188017 -7.43296e-05 0.00130457 0.000597277 0.00104933 -0.000283806 0.000260313 -0.000462849
internal_weight=782.3 178.7 165 161.1 118.1 111.9 105.7 6.2 43 26.6 23.7 603.6 596.4 355.7 61.4 38.4 16.3 23 17.8 240.7 70.9 52.1 23.9 169.8 22.1 36.3 24.4 133.5 28.2 16.4
internal_count=1210 276 256 250 179 170 161 9 71 42 37 934 924 551 95 58 24 37 29 373 101 78 33 272 34 58 37 214 45 29
is_linear=0
shrinkage=0.0324476


Tree=483
num_leaves=29
num_cat=0
split_feature=11 0 12 12 11 15 15 15 15 11 8 15 15 7 9 15 7 11 7 6 6 11 15 14 5 13 13 7
split_gain=0.00893597 0.00949857 0.0119601 0.023106 0.0369208 0.0167085 0.0576389 0.0263057 0.0254203 0.03192 0.0278038 0.0207701 0.0161572 0.0150273 0.0152896 0.0134398 0.0114037 0.0189378 0.00763593 0.00903874 0.00743992 0.006327 0.00549033 0.00315836 0.0017701 0.0006545 0.00056546 0.000426712
threshold=76687.187500000015 1.5000000000000002 32.500000000000007 1.8500000238418581 79234.265625000015 104.50000000000001 90.000000000000014 128.00000000000003 55.500000000000007 81062.632812500015 88199.000000000015 92.500000000000014 97.500000000000014 92131.242187500015 89923.683593750015 37.500000000000007 86360.687500000015 80582.750000000015 74665.257812500015 1.5000000000000002 5.5000000000000009 80653.542968750015 204.50000000000003 94191.445312500015 1.0000000180025095e-35 99.500000000000014 65.000000000000014 74219.406250000015
decision_type=2 2 2 2 2 2 2 2 2 2 2 2 2 2 2 2 2 2 2 2 2 2 2 2 2 2 2 2
left_child=24 18 3 -3 15 6 8 20 10 -10 -4 -8 -13 22 -15 -5 17 -6 27 -20 -7 -18 -9 -21 -1 26 -25 -2
right_child=1 2 5 4 16 7 11 13 9 -11 -12 12 -14 14 -16 -17 21 -19 19 23 -22 -23 -24 25 -26 -27 -28 -29
leaf_value=0.00097066831946439379 0.00035468459279568393 -0.0010637814502507817 -0.00020701319258343453 0.0021502731552499208 -0.0011280116994156725 0.0017281509602369298 -0.0027796950710215363 -5.9463242638529836e-05 -0.00087500226067416947 0.00066754318930887699 0.00059193156593276275 0.0003396352333768585 -0.0011173383995629821 0.00087178640133008987 -0.00038949389029863915 0.00010483579107042192 0.00091182326147480153 0.00031961484154277852 0.0003215808182178964 -0.0014163074511578484 0.00013877136841560921 -0.00012073624363354576 -0.001095855828304755 0 0 0 -0.00050620497368707336 -1.0358662989492497e-05
leaf_weight=2.600000023841857 2.1000000834465054 2.3000000119209281 491.90000420808792 8.0000001192092878 9.6000000238418597 7.500000059604643 2.3000000119209316 12.30000013113022 9.3000001311302167 78.200000643730164 42.300000369548798 8.3000001311302203 10.300000131130217 16.900000154972076 10.200000047683718 5.900000035762786 7.800000071525572 13.900000154972075 1.8000000715255762 6.3000002503395089 6.5000000596046448 6.5000000596046448 4.8000000715255728 3.5000000596046448 3.300000011920929 4.8000000715255737 1.5000000596046446 1.6000000238418581
leaf_count=4 7 3 739 15 11 11 3 20 17 116 64 16 18 26 13 8 12 23 6 21 10 10 9 7 4 9 5 3
internal_value=-3.7307e-05 -5.1965e-05 -2.86606e-05 0.00040202 0.000611344 -6.6682e-05 -0.000116462 0.000423365 -4.90221e-05 0.000438205 -0.000134989 -0.00152648 -0.000548944 -2.24688e-05 0.000406445 0.00166223 0 -0.000399837 -0.000620159 -0.000844534 0.00133287 0.000553777 -0.000627763 -0.00105519 0.000769127 -0.000259984 -0.00037934 0.000267577
internal_weight=782.3 776.4 754.8 54 51.7 700.8 642.6 58.2 621.7 87.5 534.2 20.9 18.6 44.2 27.1 13.9 37.8 23.5 21.6 17.9 14 14.3 17.1 16.1 5.9 9.8 5 3.7
internal_count=1210 1202 1144 82 79 1062 973 89 936 133 803 37 34 68 39 23 56 34 58 48 21 22 29 42 8 21 12 10
is_linear=0
shrinkage=0.0324476


Tree=484
num_leaves=31
num_cat=0
split_feature=10 15 15 7 7 15 15 7 15 8 7 6 6 15 6 15 10 6 10 7 10 7 15 15 12 6 8 15 0 15
split_gain=0.00916011 0.0441272 0.0586147 0.0561007 0.158701 0.0587107 0.119582 0.126867 0.0485957 0.0447753 0.0331503 0.0662174 0.0498427 0.0330074 0.0322106 0.0262023 0.022817 0.0191321 0.0567555 0.0652231 0.0888148 0.0505051 0.0279249 0.0739744 0.0862354 0.0719049 0.0580315 0.0366625 0.0235659 0.0183205
threshold=104565.07812500001 12.500000000000002 14.500000000000002 78471.726562500015 74219.406250000015 29.500000000000004 45.500000000000007 159616.75390625003 19.500000000000004 117312.33593750001 64765.328125000007 1.5000000000000002 5.5000000000000009 24.500000000000004 4.5000000000000009 22.500000000000004 101422.84375000001 1.5000000000000002 85017.179687500015 83969.113281250015 84324.855468750015 83127.746093750015 23.500000000000004 16.500000000000004 77.500000000000014 2.5000000000000004 83199.000000000015 15.500000000000002 2.5000000000000004 59.500000000000007
decision_type=2 2 2 2 2 2 2 2 2 2 2 2 2 2 2 2 2 2 2 2 2 2 2 2 2 2 2 2 2 2
left_child=10 -2 -3 4 29 8 7 -7 -5 -8 11 -1 15 -6 -10 -13 17 18 19 21 -21 -12 23 27 -25 26 -24 -19 -27 -4
right_child=1 2 3 5 13 6 9 -9 14 -11 16 12 -14 -15 -16 -17 -18 22 -20 20 -22 -23 25 24 -26 28 -28 -29 -30 -31
leaf_value=0.0010571480307102854 0.0011463553943834805 -0.0025821771552617429 0.0005437611164036952 -0.00021353871350163997 3.5744394082349634e-06 -0.00032037731682379577 0.00081664785331663121 -0.0045824254183474333 0.0023308089483483501 -0.0013946485845783352 -0.00027225672233622145 -0.0036553930996837672 0.00022018310832090258 -0.0042415336363042962 -0.00027671051100932486 0 0.0013602526416847175 3.168201935308678e-05 -0.0024344597599679353 0.0030611101876623645 5.1319527831223383e-06 -0.0026626274792672321 -0.001053789247992285 -0.0020185944781910348 0.00051765971269695024 -0.00027838678018903842 0.0016176214343194292 0.0015129163995910543 0.00041955460998295888 -0.00085151777337247065
leaf_weight=4.6000000238418606 13.700000107288359 3.900000035762786 25.500000298023227 16.200000166893005 1.999999999999998 23.600000262260441 53.500000417232513 3.600000023841857 16.90000015497208 3.600000023841857 89.300000727176666 4.200000047683714 5.5000000596046448 6.5000000596046448 3.900000035762786 2.6000000238418579 5.900000035762786 140.1000012755394 3.600000023841857 5.8000000715255728 35.600000381469727 2.600000023841857 3.9999999999999991 30.400000333786011 17.500000178813934 100.60000085830688 52.000000476837158 12.000000119209288 87.300000965595245 5.8000000715255728
leaf_count=6 20 6 43 26 2 39 78 5 26 5 132 7 9 10 6 4 8 215 5 10 58 4 4 50 28 151 80 19 144 10
internal_value=-3.64979e-05 -0.00023518 -0.000401356 -0.000222675 -0.00116281 0.000137515 -0.000336512 -0.00183297 0.0010898 0.000512507 2.40995e-05 -0.00112853 -0.00206057 -0.00371159 0.00188947 -0.00303799 7.31766e-05 4.05265e-05 -0.000283348 -8.36009e-05 0.000879719 -0.00055815 0.000144598 -0.000135534 -0.00114562 0.000372697 0.0013098 0.000222969 4.79998e-05 0.000151692
internal_weight=782.3 178.7 165 161.1 39.8 121.3 84.3 27.2 37 57.1 603.6 16.9 12.3 8.5 20.8 6.8 586.7 580.8 136.9 133.3 41.4 91.9 443.9 200 47.9 243.9 56 152.1 187.9 31.3
internal_count=1210 276 256 250 65 185 127 44 58 83 934 26 20 12 32 11 908 900 209 204 68 136 691 312 78 379 84 234 295 53
is_linear=0
shrinkage=0.0324476


Tree=485
num_leaves=31
num_cat=0
split_feature=11 11 15 15 9 1 6 6 5 15 15 15 6 3 7 15 7 15 15 7 7 7 11 7 11 11 12 15 12 7
split_gain=0.00900202 0.0507738 0.027031 0.0558759 0.0463239 0.0296585 0.0520291 0.0952099 0.0647656 0.0508327 0.0486025 0.103044 0.0892149 0.0798495 0.0375686 0.0355684 0.0702228 0.0398218 0.0274006 0.0245927 0.0252733 0.0263781 0.0207234 0.0607781 0.0351093 0.0204838 0.0201698 0.0180238 0.0155274 0.0144704
threshold=84471.722656250015 83380.816406250015 5.5000000000000009 6.5000000000000009 86708.437500000015 9.5000000000000018 4.5000000000000009 5.5000000000000009 1.0000000180025095e-35 44.500000000000007 42.500000000000007 40.500000000000007 3.5000000000000004 1.0000000180025095e-35 103389.98046875001 88.500000000000014 159616.75390625003 102.00000000000001 3.5000000000000004 111693.44140625001 87350.441406250015 82366.843750000015 79234.265625000015 75917.503906250015 79188.808593750015 81835.359375000015 95.000000000000014 50.500000000000007 25.000000000000004 72057.414062500015
decision_type=2 2 2 2 2 2 2 2 2 2 2 2 2 2 2 2 2 2 2 2 2 2 2 2 2 2 2 2 2 2
left_child=1 19 18 4 -4 10 9 8 -8 14 11 12 -5 -13 -7 16 -12 -17 -2 20 21 22 24 -24 -1 -23 -21 -11 -22 -9
right_child=2 -3 3 5 -6 6 7 29 -10 27 15 13 -14 -15 -16 17 -18 -19 -20 26 28 25 23 -25 -26 -27 -28 -29 -30 -31
leaf_value=-2.1278297225064597e-05 -0.0005316507291585437 0.0013501557980045772 0.0003848498650567556 -0.00080221317525061065 -0.0032874588058948574 0.0015667004646704107 0.00016364036940018327 0.0012152290422122443 -0.0037861461768429398 -0.0012760354274607433 0.00011146831262372571 -0.0042668961107542635 0.00056070005287610824 0.00042377271967249997 -0.00072267265804054138 -0.001498996159922946 0.0022340180524185091 0.00014312110858706234 0.0014154105461904815 0.001975183524889661 0.00014246610465208298 0.0014500621246988424 -0.0018953219346946489 -3.5526944368869134e-05 0.0018916788429689372 -0.00018954296096193007 -0.00012296516799780539 0.0001802272962986035 -0.0013046896708213782 -1.7686318580559655e-05
leaf_weight=51.900000512599945 5.8000000715255746 22.70000022649765 2.900000035762786 142.1000012755394 2.300000011920929 47.900000393390656 5.500000059604643 5.8000000715255728 4 4.3000000119209316 86.500000774860382 4.600000023841857 68.800000667572021 3.300000011920929 3.600000023841857 15.300000250339506 12.40000009536743 41.000000357627869 14.600000143051147 2.800000071525572 8.2000000476837176 13.200000166893007 14.500000178813933 102.60000085830688 4.1000000834465018 9.500000059604643 6.4000000953674316 24.500000178813934 19.200000166893005 32.000000357627869
leaf_count=82 10 36 5 217 3 71 9 10 4 5 132 6 108 4 5 30 18 62 23 7 11 23 25 153 9 13 12 35 29 53
internal_value=-3.94512e-05 0.000115662 -0.000115833 -0.000168764 -0.00223341 -0.000110697 0.00030222 -0.000494267 -0.00246725 0.000777952 -0.000256048 -0.000559725 -0.00035151 -0.00307035 0.00132246 0.000176455 0.000533145 -0.000432356 0.00085513 -4.56772e-05 -0.000134256 8.24233e-06 -0.000139761 -0.000378785 0.000338644 0.000884578 0.00112744 -0.000263556 -0.000928578 0.000347788
internal_weight=782.3 255.1 527.2 506.8 5.2 501.6 127.6 47.3 9.5 80.3 374 218.8 210.9 7.9 51.5 155.2 98.9 56.3 20.4 232.4 223.2 195.8 173.1 117.1 56 22.7 9.2 28.8 27.4 37.8
internal_count=1210 400 810 777 8 769 192 76 13 116 577 335 325 10 76 242 150 92 33 364 345 305 269 178 91 36 19 40 40 63
is_linear=0
shrinkage=0.0324476


Tree=486
num_leaves=31
num_cat=0
split_feature=10 15 15 0 15 15 6 15 10 9 10 15 6 6 6 16 15 15 1 16 15 10 6 15 6 15 5 15 0 1
split_gain=0.0092377 0.0424121 0.0569383 0.0482317 0.0328832 0.126534 0.0610058 0.0414722 0.0207748 0.0302562 0.132389 0.119551 0.0828734 0.0731875 0.10645 0.0403765 0.0790228 0.0617146 0.0339921 0.0239772 0.0231658 0.0181686 0.018027 0.0152691 0.0363477 0.0191228 0.0145206 0.0135689 0.013089 0.041024
threshold=104565.07812500001 12.500000000000002 14.500000000000002 3.5000000000000004 23.500000000000004 26.500000000000004 3.5000000000000004 18.500000000000004 86008.796875000015 86708.437500000015 81791.082031250015 33.500000000000007 3.5000000000000004 4.5000000000000009 6.5000000000000009 1.0000000180025095e-35 44.500000000000007 31.500000000000004 -1.0000000180025095e-35 4.5000000000000009 55.500000000000007 84324.855468750015 4.5000000000000009 7.5000000000000009 5.5000000000000009 5.5000000000000009 -1.0000000180025095e-35 20.500000000000004 3.5000000000000004 1.0000000180025095e-35
decision_type=2 2 2 2 2 2 2 2 2 2 2 2 2 2 2 2 2 2 2 2 2 2 2 2 2 2 2 2 2 2
left_child=8 22 -3 27 7 -6 -7 26 9 18 13 12 -12 15 -15 16 -11 -17 19 23 -13 -22 -2 25 -25 -1 -5 -4 29 -20
right_child=1 2 3 4 5 6 -8 -9 -10 10 11 20 -14 14 -16 17 -18 -19 28 -21 21 -23 -24 24 -26 -27 -28 -29 -30 -31
leaf_value=0.00041500612239681126 0.0015816122768045149 -0.0025517405064938671 2.7832603572213338e-05 -0.0012786653909312193 -0.0032799672917106014 0.00081515660993043649 -0.00069799523825358068 0.001412485739671074 0.00067280604555434065 0.0018023948043135952 -0.0045595662352464258 0.00081540082620015655 0.00047773829420064406 -0.0033305528915018455 0.0006870298091921417 -0.0021154341297031929 -0.0007584623021261893 0.00062787344595657542 -0.0013179404259259161 -0.00072057646476727112 0.00029859443561833324 -0.0014839517026321121 -0.00030330238279081243 0.001233143761478967 -0.00013838423074173518 -0.0011562528955744646 0.00031303974384966614 -0.0016196348795487945 9.7767211494762961e-05 -2.063589758303468e-05
leaf_weight=19.200000166893009 9.800000071525572 3.900000035762786 5.6000001430511501 4.2000000476837158 4.600000023841857 53.300000369548798 43.300000250339508 24.200000166893005 39.300000369548798 36.500000298023224 9.7000001072883624 7.5000000596046474 2.3000000119209281 5.2000000476837149 9.4000000953674299 4.9000000357627895 12.100000083446501 17.500000178813934 24.700000822544098 7.5000000596046439 5.800000071525572 6.4000000953674316 3.900000035762786 62.700000703334808 25.70000022649765 3.3000000119209281 6.200000047683714 19.700000464916229 184.20000112056732 119.70000106096268
leaf_count=29 14 6 14 7 6 75 58 34 61 54 16 11 3 8 15 7 17 28 73 11 10 12 6 104 39 4 9 47 250 182
internal_value=-3.96872e-05 -0.000239173 -0.000401803 -0.000225322 4.17912e-05 -0.000256282 0.000131778 0.000803447 2.1199e-05 -3.2604e-05 -0.000478564 -0.00202345 -0.00377482 0.000217602 -0.00141512 0.000670819 0.00114064 -0.000369084 9.01788e-05 0.000542475 -0.000141741 -0.00084019 0.00111591 0.000675169 0.000852844 -5.23948e-05 -0.000591643 -0.00132691 -8.10112e-05 -0.000304446
internal_weight=782.3 178.7 165 161.1 135.8 101.2 96.6 34.6 603.6 564.3 117.3 31.7 12 85.6 14.6 71 48.6 22.4 447 118.4 19.7 12.2 13.7 110.9 88.4 22.5 10.4 25.3 328.6 144.4
internal_count=1210 276 256 250 189 139 133 50 934 873 181 52 19 129 23 106 71 35 692 187 33 22 20 176 143 33 16 61 505 255
is_linear=0
shrinkage=0.0324476


Tree=487
num_leaves=31
num_cat=0
split_feature=11 11 15 15 10 1 15 15 10 7 5 15 9 15 7 15 7 15 7 7 7 7 11 7 11 12 11 7 12 14
split_gain=0.00904517 0.0481067 0.0265127 0.0542982 0.0454118 0.0267506 0.0472271 0.100697 0.0903118 0.0412119 0.0354342 0.0607514 0.0410214 0.0338213 0.0679512 0.0381423 0.0281248 0.0265974 0.0242264 0.0240698 0.0253376 0.023535 0.0203814 0.0583569 0.0343973 0.0197668 0.0196396 0.0160632 0.0148619 0.0134424
threshold=84471.722656250015 83380.816406250015 5.5000000000000009 6.5000000000000009 84324.855468750015 9.5000000000000018 42.500000000000007 40.500000000000007 104565.07812500001 111693.44140625001 1.0000000180025095e-35 44.500000000000007 86708.437500000015 88.500000000000014 159616.75390625003 102.00000000000001 64765.328125000007 3.5000000000000004 111693.44140625001 87350.441406250015 82366.843750000015 65547.658203125015 79234.265625000015 75917.503906250015 79188.808593750015 95.000000000000014 81835.359375000015 78126.875000000015 25.000000000000004 94191.445312500015
decision_type=2 2 2 2 2 2 2 2 2 2 2 2 2 2 2 2 2 2 2 2 2 2 2 2 2 2 2 2 2 2
left_child=1 18 17 4 -4 6 7 9 -9 -5 11 12 -7 14 -8 -15 -12 -2 19 20 22 -18 24 -24 -1 -20 -22 -13 -21 -19
right_child=2 -3 3 5 -6 10 13 8 -10 -11 16 27 -14 15 -16 -17 21 29 25 28 26 -23 23 -25 -26 -27 -28 -29 -30 -31
leaf_value=-2.0360693097386282e-05 -0.00052377347849217422 0.0013139926471231829 -0.0032516263392556722 -0.00051333456457804745 0.00038202106336998278 0.00037528077800793257 0.00010688387722213582 0.00039421755368842859 -0.0044580786574111974 0.0007532936120041309 -0.0018295007222358191 0.00051111310457789484 0.0023009507489121458 -0.0014640805179391423 0.0021945368749980735 0.00014258128137299212 0.0014543127316349099 0.0017083911005512022 0.0019586947259245951 0.00013932788043322797 0.0014192553855379138 -0.00026178086291058682 -0.0018616422102630237 -3.8778197536591868e-05 0.0018731197411862772 -0.00011978867961682648 -0.00018562430304562777 -0.00081311394864036479 -0.0012757819276866457 -0.00016647399241659808
leaf_weight=51.900000512599945 5.8000000715255746 22.70000022649765 2.3000000119209281 187.20000171661377 2.9000000357627869 29.600000262260437 86.500000774860382 3.9999999999999991 3.9000000357627869 23.70000022649765 2.600000023841857 7.4000000953674343 17.500000178813934 15.300000250339506 12.40000009536743 41.000000357627869 1.6000000238418568 11.700000107288359 2.800000071525572 8.2000000476837176 13.200000166893007 48.300000369548798 14.500000178813933 102.60000085830688 4.1000000834465018 6.4000000953674316 9.500000059604643 20.600000143051147 19.200000166893005 2.9000000357627878
leaf_count=82 10 36 3 288 5 45 132 4 6 37 4 13 28 30 18 62 3 18 7 11 23 70 25 153 9 12 13 29 29 5
internal_value=-4.31772e-05 0.000112345 -0.000119703 -0.000172059 -0.00220763 -0.000114707 -0.000252647 -0.000552 -0.0030338 -0.000346205 0.000277606 0.000700927 0.00133462 0.000173676 0.000521472 -0.000420018 -0.000334791 0.000842063 -4.46521e-05 -0.000132602 6.47881e-06 -1.14088e-06 -0.000138481 -0.00037554 0.000335928 0.00111966 0.000865467 -0.000416051 -0.000907763 0.00139418
internal_weight=782.3 255.1 527.2 506.8 5.2 501.6 374 218.8 7.9 210.9 127.6 75.1 47.1 155.2 98.9 56.3 52.5 20.4 232.4 223.2 195.8 49.9 173.1 117.1 56 9.2 22.7 28 27.4 14.6
internal_count=1210 400 810 777 8 769 577 335 10 325 192 115 73 242 150 92 77 33 364 345 305 73 269 178 91 19 36 42 40 23
is_linear=0
shrinkage=0.0324476


Tree=488
num_leaves=31
num_cat=0
split_feature=11 11 15 15 1 15 7 7 7 16 15 7 6 1 1 6 6 7 15 6 11 7 11 12 11 7 15 12 15 14
split_gain=0.00881796 0.0456772 0.0253646 0.0539534 0.107218 0.0256857 0.0237238 0.0230288 0.0242338 0.0210463 0.0981892 0.107897 0.026709 0.0204692 0.0513022 0.0488141 0.0968153 0.0426561 0.0390183 0.0251099 0.0197403 0.0559914 0.0336505 0.0194261 0.0188931 0.014334 0.0204543 0.0142391 0.0131849 0.0130123
threshold=84471.722656250015 83380.816406250015 5.5000000000000009 7.5000000000000009 -1.0000000180025095e-35 3.5000000000000004 111693.44140625001 87350.441406250015 82366.843750000015 1.5000000000000002 41.500000000000007 159616.75390625003 2.5000000000000004 9.5000000000000018 1.5000000000000002 4.5000000000000009 5.5000000000000009 83355.019531250015 27.500000000000004 3.5000000000000004 79234.265625000015 75917.503906250015 79188.808593750015 95.000000000000014 81835.359375000015 123822.71484375001 73.500000000000014 25.000000000000004 46.500000000000007 94191.445312500015
decision_type=2 2 2 2 2 2 2 2 2 2 2 2 2 2 2 2 2 2 2 2 2 2 2 2 2 2 2 2 2 2
left_child=1 6 5 4 -4 -2 7 8 20 13 11 12 -11 14 18 17 -17 -15 -5 -16 22 -22 -1 -8 -10 28 -27 -9 -12 -7
right_child=2 -3 3 9 -6 29 23 27 24 10 25 -13 -14 15 19 16 -18 -19 -20 -21 21 -23 -24 -25 -26 26 -28 -29 -30 -31
leaf_value=-1.9790956133183636e-05 -0.00051677375795047852 0.0012827542970941109 -0.0040275193907626143 -0.00036628500968177106 0.00040336312163160708 0.0016759339435268559 0.0019426373073680198 0.00013707874004975239 0.0013909586499281411 -0.0010526812646203716 0.00064928779842661792 -0.0046504617386743333 0.00083550738813287803 0.00018353632744234886 -0.0024755564794465821 -0.002471234715696026 0.00052765771761825926 0.00181385928887262 0.00038704354671160616 -0.00011338785080591779 -0.0018231963832699145 -3.7613914590686016e-05 0.0018529949172180775 -0.00011809439550762102 -0.00018240654142783453 0.0016221936698024727 0 -0.00124686136381061 -0.00044202409017537434 -0.00016507312055837162
leaf_weight=51.900000512599945 5.8000000715255746 22.70000022649765 2.600000023841857 142.30000132322311 9.1000000834465009 11.700000107288359 2.800000071525572 8.2000000476837176 13.200000166893007 10.000000119209291 6.600000023841857 2.900000035762786 5.900000035762786 43.900000393390656 5.600000023841857 8.500000059604643 28.100000321865082 22.300000131130219 131.10000115633011 9.0000001192092878 14.500000178813933 102.60000085830688 4.1000000834465018 6.4000000953674316 9.500000059604643 4.2000000476837185 23.900000154972076 19.200000166893005 50.800000548362732 2.9000000357627878
leaf_count=82 10 36 4 220 14 18 7 11 23 17 8 5 8 67 7 12 47 30 199 16 25 153 9 12 13 7 33 29 83 5
internal_value=-4.16625e-05 0.000111875 -0.000117235 -0.000168457 -0.00182378 0.000823434 -4.11451e-05 -0.000128294 7.65197e-06 -9.92328e-05 -0.000490227 -0.00219327 -0.000290383 1.21903e-05 -0.000127948 0.000388429 -0.00048798 0.000878372 -2.96482e-06 -0.00160385 -0.000134125 -0.000367525 0.000332585 0.0011109 0.000847693 4.08813e-05 0.000557603 -0.000886528 -0.0002448 0.00136652
internal_weight=782.3 255.1 527.2 506.8 11.7 20.4 232.4 223.2 195.8 495.1 104.3 18.8 15.9 390.8 288 102.8 36.6 66.2 273.4 14.6 173.1 117.1 56 9.2 22.7 85.5 28.1 27.4 57.4 14.6
internal_count=1210 400 810 777 18 33 364 345 305 759 161 30 25 598 442 156 59 97 419 23 269 178 91 19 36 131 40 40 91 23
is_linear=0
shrinkage=0.0324476


Tree=489
num_leaves=31
num_cat=0
split_feature=11 11 15 15 1 15 7 7 7 16 15 7 6 5 7 7 1 1 6 6 7 15 7 11 7 11 12 11 12 14
split_gain=0.00880424 0.0433677 0.0244032 0.0532803 0.1053 0.0248053 0.023233 0.0220329 0.0231773 0.0201436 0.0965643 0.106515 0.0258788 0.0210182 0.051887 0.0280851 0.0193624 0.0499676 0.0470318 0.0933507 0.0419289 0.0366678 0.0247421 0.0191203 0.0537213 0.0329202 0.0190914 0.0181752 0.0136428 0.0125964
threshold=84471.722656250015 83380.816406250015 5.5000000000000009 7.5000000000000009 -1.0000000180025095e-35 3.5000000000000004 111693.44140625001 87350.441406250015 82366.843750000015 1.5000000000000002 41.500000000000007 159616.75390625003 2.5000000000000004 1.0000000180025095e-35 86750.121093750015 86750.121093750015 9.5000000000000018 1.5000000000000002 4.5000000000000009 5.5000000000000009 107331.48828125001 27.500000000000004 99351.253906250015 79234.265625000015 75917.503906250015 79188.808593750015 95.000000000000014 81835.359375000015 25.000000000000004 94191.445312500015
decision_type=2 2 2 2 2 2 2 2 2 2 2 2 2 2 2 2 2 2 2 2 2 2 2 2 2 2 2 2 2 2
left_child=1 6 5 4 -4 -2 7 8 23 16 11 12 -11 14 -12 -15 17 21 20 -20 -18 -5 -19 25 -25 -1 -8 -10 -9 -7
right_child=2 -3 3 9 -6 29 26 28 27 10 13 -13 -14 15 -16 -17 18 22 19 -21 -22 -23 -24 24 -26 -27 -28 -29 -30 -31
leaf_value=-1.923715894149185e-05 -0.00050986757888448213 0.0012522586240571402 -0.0039962963378235841 -0.00035505366375203562 0.00039651120500828574 0.0016440934154132835 0.0019267114516556215 0.00013486589617357067 0.0013632260582191217 -0.0010339981652103859 -0.0014166826752097391 -0.0046113283873548943 0.00082422920408494187 0.0015025366663853888 0.00034463269034610969 -0.0003512458103002713 0.0011110266530937035 -0.0022080131759079817 -0.0024306216972472205 0.00051443406609488524 -0.00099259479357610095 0.00037523118373373814 8.0037679174711432e-05 -0.0017855445059481898 -3.6484608452340729e-05 0.0018330862757135278 -0.00011642411010673999 -0.00017924455667331517 -0.0012185963380135303 -0.00016368403530064949
leaf_weight=51.900000512599945 5.8000000715255746 22.70000022649765 2.600000023841857 142.30000132322311 9.1000000834465009 11.700000107288359 2.800000071525572 8.2000000476837176 13.200000166893007 10.000000119209291 18.100000202655792 2.900000035762786 5.900000035762786 11.600000143051149 45.600000381469727 10.200000047683714 61.300000488758087 8.800000071525572 8.500000059604643 28.100000321865082 4.900000035762786 131.10000115633011 5.8000000715255728 14.500000178813933 102.60000085830688 4.1000000834465018 6.4000000953674316 9.500000059604643 19.200000166893005 2.9000000357627878
leaf_count=82 10 36 4 220 14 18 7 11 23 17 30 5 8 20 68 13 90 13 12 47 7 199 10 25 153 9 12 13 29 5
internal_value=-4.20254e-05 0.000111396 -0.000117535 -0.000167753 -0.00181274 0.000805184 -3.77437e-05 -0.000124101 8.78042e-06 -9.89507e-05 -0.000481454 -0.0021704 -0.000282873 4.48104e-05 -0.000256061 0.00076484 1.00712e-05 -0.000126167 0.000376065 -0.000483513 0.000857241 -2.80575e-06 -0.00158275 -0.000129881 -0.000359685 0.000329269 0.00110221 0.000830279 -0.00086578 0.0013394
internal_weight=782.3 255.1 527.2 506.8 11.7 20.4 232.4 223.2 195.8 495.1 104.3 18.8 15.9 85.5 63.7 21.8 390.8 288 102.8 36.6 66.2 273.4 14.6 173.1 117.1 56 9.2 22.7 27.4 14.6
internal_count=1210 400 810 777 18 33 364 345 305 759 161 30 25 131 98 33 598 442 156 59 97 419 23 269 178 91 19 36 40 23
is_linear=0
shrinkage=0.0324476


Tree=490
num_leaves=31
num_cat=0
split_feature=11 11 15 15 9 15 1 6 6 5 15 16 5 15 12 6 15 15 15 6 14 15 1 16 12 12 15 15 3 15
split_gain=0.0089106 0.0411724 0.0235583 0.0527332 0.0437785 0.0239551 0.0227616 0.0441782 0.0854921 0.065368 0.0451182 0.0711112 0.042276 0.0434226 0.0736438 0.0319903 0.0237006 0.0770693 0.0211373 0.0160833 0.0121943 0.0121387 0.00865695 0.0150786 0.0140513 0.0233393 0.0211582 0.0161163 0.0139071 0.0269075
threshold=84471.722656250015 83380.816406250015 5.5000000000000009 6.5000000000000009 86708.437500000015 3.5000000000000004 9.5000000000000018 4.5000000000000009 5.5000000000000009 1.0000000180025095e-35 29.500000000000004 1.0000000180025095e-35 1.0000000180025095e-35 46.500000000000007 95.000000000000014 1.5000000000000002 21.500000000000004 36.500000000000007 80.000000000000014 2.5000000000000004 94191.445312500015 15.500000000000002 -1.0000000180025095e-35 4.5000000000000009 42.500000000000007 6.2500000000000009 6.5000000000000009 9.5000000000000018 1.0000000180025095e-35 12.500000000000002
decision_type=2 2 2 2 2 2 2 2 2 2 2 2 2 2 2 2 2 2 2 2 2 2 2 2 2 2 2 2 2 2
left_child=1 22 5 4 -4 -2 12 10 9 -9 11 -8 13 14 -5 -12 19 -18 -15 -14 -7 -10 23 -1 25 -24 -27 -28 29 -26
right_child=2 -3 3 6 -6 20 7 8 21 -11 15 -13 16 18 -16 -17 17 -19 -20 -21 -22 -23 24 -25 28 26 27 -29 -30 -31
leaf_value=0.00049399980762350026 -0.00050305368959627976 0.0012224879452383554 0.00037207549932705917 -0.0010555949172780152 -0.0031991639349627484 0.0016128577851438879 0.002091088779180053 0.00022040170667313454 -0.00062902117086448283 -0.0036805772346035714 -0.0010373160822842904 -0.00080448534279874096 -0.00010055119796715408 0.000472378021434873 0.00049961993669618912 0.00051238694843929507 -0.001536713597584109 0.00064693312392669555 -0.00037506637513511412 0.0014177047306424076 -0.00016230665421965206 0.00054641578090578 -0.00089589497483157229 -0.00073861700405377457 -0.00074021842020334722 -0.00063547015393746462 0.0019010675983890763 0.00031436609700801924 -0.00088719208096252008 0.00023040366763420517
leaf_weight=49.600000500679016 5.8000000715255746 22.70000022649765 2.900000035762786 140.90000122785568 2.300000011920929 11.700000107288359 27.100000202655792 5.500000059604643 4.2000000476837149 4 12.800000071525572 6.8000000715255728 8.1000000834465045 57.700000584125519 35.100000321865082 33.600000262260437 16.200000166893005 47.500000417232513 50.100000441074371 18.400000214576721 2.9000000357627878 33.600000381469727 4.900000035762786 4.900000035762786 38.100000321865082 4.3000000119209281 5.8000000715255764 22.70000022649765 24.70000022649765 77.400000810623169
leaf_count=79 10 36 5 213 3 18 39 9 7 4 17 11 13 92 54 49 26 72 76 31 5 56 7 7 57 5 10 36 38 125
internal_value=-4.34534e-05 0.000110908 -0.000119404 -0.000168699 -0.0021747 0.000787305 -0.000112183 0.000249749 -0.000481462 -0.00235034 0.000689428 0.00145749 -0.00023938 -0.00043192 -0.000734892 -6.42956e-07 0.000347998 -1.61282e-05 7.66479e-05 0.00102945 0.00131279 0.000318119 -3.44453e-05 0.000294403 -0.000145812 0.000355173 0.000694106 0.00100279 -0.000295342 -0.00011486
internal_weight=782.3 255.1 527.2 506.8 5.2 20.4 501.6 127.6 47.3 9.5 80.3 33.9 374 283.8 176 46.4 90.2 63.7 107.8 26.5 14.6 37.8 232.4 54.5 177.9 37.7 32.8 28.5 140.2 115.5
internal_count=1210 400 810 777 8 33 769 192 76 13 116 50 577 435 267 66 142 98 168 44 23 63 364 86 278 58 51 46 220 182
is_linear=0
shrinkage=0.0324476


Tree=491
num_leaves=31
num_cat=0
split_feature=11 0 12 12 11 7 7 6 11 7 11 7 11 6 14 1 7 7 16 7 11 7 6 11 13 13 0 6 6 7
split_gain=0.00867909 0.0100944 0.0106775 0.0219534 0.0329966 0.0140284 0.0712424 0.0590634 0.0424512 0.0272771 0.0389889 0.0371392 0.0307332 0.029243 0.0228559 0.0158874 0.0333612 0.0266293 0.013802 0.00983112 0.0166236 0.0082314 0.00895349 0.00585942 0.00287225 0.00186231 0.00157952 0.000522359 0.000350773 1.6661e-05
threshold=76687.187500000015 1.5000000000000002 32.500000000000007 1.8500000238418581 79234.265625000015 77971.679687500015 77026.343750000015 3.5000000000000004 84471.722656250015 81393.480468750015 81471.726562500015 81495.628906250015 79780.816406250015 3.5000000000000004 84097.585937500015 1.0000000180025095e-35 75761.613281250015 64765.328125000007 2.5000000000000004 86360.687500000015 80582.750000000015 74665.257812500015 1.5000000000000002 80653.542968750015 65.000000000000014 99.500000000000014 3.5000000000000004 9.5000000000000018 9.5000000000000018 84779.402343750015
decision_type=2 2 2 2 2 2 2 2 2 2 2 2 2 2 2 2 2 2 2 2 2 2 2 2 2 2 2 2 2 2
left_child=26 21 3 -3 18 6 15 8 -8 10 12 -11 -7 -13 -12 16 -4 -17 25 20 -6 28 -23 -21 29 -5 -1 -9 -2 -24
right_child=1 2 5 4 19 9 7 27 -10 11 14 13 -14 -15 -16 17 -18 -19 -20 23 -22 22 24 -25 -26 -27 -28 -29 -30 -31
leaf_value=2.0550801762222514e-06 0 -0.0010504940422944133 -0.00062352734739405376 0.00017162961664620303 -0.0010536197205683025 0.00044259529969591907 0 0.00035943404479805031 -0.0037905181927195856 -0.0017756601911915757 0.0017985981763468048 0.00019476746122949065 -0.0009440277535613978 -0.00038240886222965068 0.00045934991698066339 -0.00074601513738499318 0.00039341917514799062 0.00074345124893200642 -2.9377142732448473e-05 0.00086103141278544477 0.00030149813271969464 0.00030578530667861353 -6.2396098484715151e-05 -0.00012500812825593055 -0.0012391857207629028 0.0021278423543062341 0.00094249482876519188 -6.1557587867836941e-06 0.00035221985426662854 0
leaf_weight=3.3000000119209281 1.5000000596046477 2.3000000119209281 83.000000953674316 2.600000023841857 9.6000000238418597 25.500000298023224 4.2000000476837176 4.2000000476837149 5.5000000596046448 5.600000023841857 11.800000071525572 200.50000160932541 26.100000202655792 157.40000128746033 77.800000667572021 9.500000059604643 46.600000381469727 40.200000405311584 3.900000035762786 7.800000071525572 13.900000154972075 1.8000000715255762 2.2000000476837225 6.5000000596046448 12.300000369548792 7.4000000953674308 2.6000000238418579 2.9000000357627869 2.2000000476837158 1.6000000238418577
leaf_count=4 5 3 139 4 11 43 7 7 9 7 16 295 38 233 117 13 69 64 6 12 23 6 5 10 34 13 4 5 5 3
internal_value=-4.35483e-05 -5.79299e-05 -3.38683e-05 0.000373059 0.000578929 -6.97424e-05 -0.000296691 -0.00191735 -0.00292005 2.10754e-05 0.00039155 -0.000127345 -0.000286096 -6.09546e-05 0.000776807 -6.48942e-05 -0.000253487 0.000386402 0.00157239 0 -0.000370625 -0.000643807 -0.000876642 0.000514809 -0.00108314 0.00194784 0.000751231 0.000262889 0.00027876 -4.38847e-05
internal_weight=782.3 776.4 754.8 54 51.7 700.8 196.1 16.8 9.7 504.7 141.2 363.5 51.6 357.9 89.6 179.3 129.6 49.7 13.9 37.8 23.5 21.6 17.9 14.3 16.1 10 5.9 7.1 3.7 3.8
internal_count=1210 1202 1144 82 79 1062 313 28 16 749 214 535 81 528 133 285 208 77 23 56 34 58 48 22 42 17 8 12 10 8
is_linear=0
shrinkage=0.0324476


Tree=492
num_leaves=31
num_cat=0
split_feature=11 0 7 6 8 11 6 5 16 17 10 16 11 0 11 8 7 7 11 14 7 7 7 8 8 5 14 7 6 7
split_gain=0.00854341 0.00959875 0.0107753 0.0593909 0.0969382 0.0987039 0.0931763 0.111219 0.0756311 0.0463387 0.0362103 0.0408358 0.0227721 0.0386795 0.0353915 0.0209628 0.0174115 0.0566619 0.0360303 0.0171747 0.00797636 0.00881008 0.00787842 0.00195032 0.0018058 0.00155107 0.000860345 0.000425024 0.000347271 0.000328447
threshold=76687.187500000015 1.5000000000000002 99351.253906250015 3.5000000000000004 91380.812500000015 92880.816406250015 4.5000000000000009 -1.0000000180025095e-35 3.5000000000000004 1.0000000180025095e-35 104565.07812500001 1.5000000000000002 95025.933593750015 2.5000000000000004 94386.484375000015 115480.47656250001 84426.269531250015 84088.066406250015 92292.222656250015 94191.445312500015 74665.257812500015 80082.488281250015 94238.054687500015 101484.38671875001 138307.51953125003 1.0000000180025095e-35 94191.445312500015 84779.402343750015 9.5000000000000018 81334.050781250015
decision_type=2 2 2 2 2 2 2 2 2 2 2 2 2 2 2 2 2 2 2 2 2 2 2 2 2 2 2 2 2 2
left_child=25 20 12 4 5 8 7 -5 -4 -9 19 -12 14 -14 16 23 17 -3 -18 -8 28 -22 27 -6 -17 -1 -7 29 -2 -23
right_child=1 2 3 6 15 26 10 9 -10 -11 11 -13 13 -15 -16 24 18 -19 -20 -21 21 22 -24 -25 -26 -27 -28 -29 -30 -31
leaf_value=0.00093518826944589799 0 -6.244732102721022e-05 0.0041622820053450705 0.0011497771331153961 -0.0012799296211250687 -0.00017104377423074726 0.0012764788432193959 -0.0039479045057132468 -0.00038423121906187326 -0.0001272863688304357 -0.0016877475356793807 0.00057726239266107232 -0.00056197601793251219 0.0018346358686111824 -0.0017914304530553453 0 -0.00055483668485819507 0.0017276591413888502 0.001015804584447108 -0.00016919585541924216 -0.001418650947295875 0 -0.00075483494231332732 -0.00021961206980310278 0.00071800334812260793 2.0360742646088804e-06 0.00016926314899142286 5.2401066330105505e-06 0.00034982120959017513 0.00052414157681536088
leaf_weight=2.600000023841857 1.5000000596046477 461.80000424385071 11.100000202655794 4.2000000476837185 7.5000000596046466 8.500000059604643 24.300000250339508 7.800000071525572 2.9999999999999991 5.2000000476837158 8.2000000476837176 10.500000059604643 6.900000035762786 8.1000000834465009 4.900000035762786 5.200000047683714 130.20000100135803 11.100000083446501 9.500000059604643 8.800000071525572 5.8000001907348659 1.8000000715255717 3.0000001192092887 7.9000000357627869 3.9000000357627869 3.300000011920929 6.2000000476837149 5.1000000834465027 2.2000000476837158 2.2000000476837158
leaf_count=4 5 711 23 7 11 12 39 12 3 8 11 14 9 13 7 8 189 16 13 13 17 6 10 10 6 4 9 10 5 5
internal_value=-4.29159e-05 -5.71911e-05 -3.37062e-05 0.000234629 0.000976629 0.00203726 -0.00037694 -0.00199572 0.00339401 -0.0030815 0.00035536 -0.000615283 -8.85369e-05 0.000908397 -0.000125054 -0.000458462 -8.74035e-05 7.80717e-06 -0.000394627 0.000926156 -0.000628546 -0.000858264 -0.000103993 -0.00101882 0.000501924 0.000745609 -1.97131e-06 0.000346488 0.000276662 0.000454211
internal_weight=782.3 776.4 754.8 122.3 53.3 28.8 69 17.2 14.1 13 51.8 18.7 632.5 15 617.5 24.5 612.6 472.9 139.7 33.1 21.6 17.9 12.1 15.4 9.1 5.9 14.7 9.1 3.7 4
internal_count=1210 1202 1144 186 82 47 104 27 26 20 77 25 958 22 936 35 929 727 202 52 58 48 31 21 14 8 21 21 10 11
is_linear=0
shrinkage=0.0324476


Tree=493
num_leaves=31
num_cat=0
split_feature=14 0 6 15 5 12 6 9 15 8 7 9 15 1 15 15 7 9 15 9 6 9 12 17 7 7 15 10 13 6
split_gain=0.00810533 0.0168744 0.0279555 0.0232592 0.0168541 0.014789 0.0215433 0.0403639 0.0257735 0.0699057 0.0756485 0.175052 0.0621344 0.0573423 0.0928148 0.0484757 0.0432373 0.0382679 0.0300029 0.0289878 0.0284867 0.0200121 0.0306073 0.0184976 0.0290372 0.0241723 0.0229451 0.0155018 0.0143032 0.0132768
threshold=94191.445312500015 2.5000000000000004 2.5000000000000004 29.500000000000004 -1.0000000180025095e-35 72.500000000000014 6.5000000000000009 97158.113281250015 27.500000000000004 84579.824218750015 77562.632812500015 86708.437500000015 29.500000000000004 -1.0000000180025095e-35 58.500000000000007 106.50000000000001 80744.453125000015 80698.996093750015 17.500000000000004 86708.437500000015 1.5000000000000002 71514.535156250015 95.000000000000014 1.0000000180025095e-35 74998.589843750015 77971.679687500015 23.500000000000004 86008.796875000015 65.000000000000014 2.5000000000000004
decision_type=2 2 2 2 2 2 2 2 2 2 2 2 2 2 2 2 2 2 2 2 2 2 2 2 2 2 2 2 2 2
left_child=5 3 -3 -2 -4 23 8 21 9 16 11 -11 19 14 -14 -15 20 -12 -18 -10 -7 -8 -23 24 26 -25 -1 -9 -5 -21
right_child=1 2 4 28 -6 6 7 27 12 10 17 -13 13 15 -16 -17 18 -19 -20 29 -22 22 -24 25 -26 -27 -28 -29 -30 -31
leaf_value=0.0018455090519031612 0.00049800558163393398 -0.00038021769681220052 -0.00015198187503505015 0.00034733435701293406 0.0014817934268253495 -0.00056565443101276201 -0.00030728279251613164 0.00043411361311780899 -0.00027254560546525775 -0.00029225031197288121 -0.0020432586232127965 -0.0037813846910138699 0.0021706121452469878 -0.00062693359667388953 -0.0004799190465333562 0.00088379989248740928 0.00043039721441919459 -0.0001013490081509385 -0.0015360764747581509 0.0028726019134453504 0.0012226622832285274 0.0014638184989843738 -9.3988244229852185e-05 -0.00025587763208534349 -0.00029709570549504253 0.0017378241347405456 -0.0002142237567777546 -0.00097858717138543964 -0.00070877549136497706 0.00021840378815413358
leaf_weight=5.800000071525572 36.900000274181366 13.600000143051146 6.2000000476837185 12.000000119209288 21.600000381469727 6.2000000476837149 11.600000143051146 5.5000000596046474 3.8000000715255711 41.800000429153442 3.600000023841857 17.200000166893005 18.100000202655792 147.20000123977661 24.000000238418579 18.500000178813934 9.7000001072883624 123.50000101327896 9.1000000834465009 4.300000011920929 39.200000405311584 32.70000034570694 17.600000143051147 6.8000000715255728 61.000000596046448 8.800000071525572 6.5000000596046448 20.800000190734863 44.200000286102295 4.5000000596046448
leaf_count=10 53 22 9 19 44 9 20 9 8 67 5 27 30 220 38 29 16 183 14 5 63 53 26 11 96 13 10 32 61 8
internal_value=-4.10725e-05 0.000180218 0.000664432 -6.81049e-05 0.00115581 -8.92831e-05 -0.0001521 0.000292533 -0.000239814 -0.000459618 -0.000770394 -0.00165525 1.57792e-05 -0.000146519 0.000821696 -0.000422072 0.000421178 -0.000280749 -0.000686319 0.00170683 0.000921886 0.000722415 0.000976133 0.000281098 1.82759e-05 0.00106576 0.00109066 -0.000639131 -0.000461825 0.00230118
internal_weight=782.3 134.5 41.4 93.1 27.8 647.8 558.9 88.2 470.7 250.3 186.1 59 220.4 207.8 42.1 165.7 64.2 127.1 18.8 12.6 45.4 61.9 50.3 88.9 73.3 15.6 12.3 26.3 56.2 8.8
internal_count=1210 208 75 133 53 1002 862 140 722 384 282 94 338 317 68 249 102 188 30 21 72 99 79 140 116 24 20 41 80 13
is_linear=0
shrinkage=0.0324476


Tree=494
num_leaves=31
num_cat=0
split_feature=9 10 7 7 15 16 15 7 15 15 15 7 15 8 8 7 15 9 7 10 15 15 10 10 10 15 7 7 7 9
split_gain=0.00807921 0.0112618 0.0341006 0.16009 0.0543396 0.0386704 0.131537 0.0603854 0.0460035 0.0742985 0.0554483 0.0535899 0.0440676 0.0387223 0.0309525 0.0292282 0.0295581 0.0291793 0.0223244 0.056133 0.0647561 0.0213692 0.0195197 0.052541 0.0505238 0.0491467 0.0345448 0.0253062 0.0158886 0.0157943
threshold=105017.44921875001 104565.07812500001 78471.726562500015 74219.406250000015 24.500000000000004 1.0000000180025095e-35 45.500000000000007 159616.75390625003 19.500000000000004 13.500000000000002 29.500000000000004 84133.519531250015 67.500000000000014 117312.33593750001 84926.269531250015 64765.328125000007 22.500000000000004 80698.996093750015 159616.75390625003 82344.914062500015 92.500000000000014 59.500000000000007 81150.078125000015 79235.242187500015 82344.914062500015 69.500000000000014 66816.148437500015 73206.855468750015 77971.679687500015 86708.437500000015
decision_type=2 2 2 2 2 2 2 2 2 2 2 2 2 2 2 2 2 2 2 2 2 2 2 2 2 2 2 2 2 2
left_child=1 15 3 21 -5 8 7 -7 9 14 -10 -11 -12 29 -4 16 17 -1 22 -20 -21 -3 23 26 -24 -25 -17 -26 -6 -8
right_child=-2 2 5 4 28 6 13 -9 10 11 12 -13 -14 -15 -16 18 -18 -19 19 20 -22 -23 24 25 27 -27 -28 -29 -30 -31
leaf_value=0.00017552101871469276 0.00068713994074108575 0.00069079854888411487 0.0018864554353558711 -9.563323991331347e-05 -0.0050620401374124307 -0.0001433904452108416 -0.00051351725082051357 -0.0045342747953374422 0.0019507343722531436 0.00011638548521045059 -0.00049647530513793404 -0.0030066307696350208 0.0014697393728157586 -0.0014777152755207816 -0.0005946607332860237 0.0013119758346597826 0.00039841884298429895 -0.0024641625433855867 -0.00065116026687366468 0.003390610076152328 0 -0.00089030573644979284 -0.0021767702141821106 0.0029787993924855738 -0.0010669552961543173 -0.00031467276936075517 -0.00023645346667794362 2.9511243751875627e-05 -0.00038434875966317423 0.00093793631738322615
leaf_weight=4.5000000596046466 7.5000000596046439 26.800000309944156 5.5000000596046466 4.6000000238418561 2.9000000357627869 5.800000071525572 3.900000035762786 2.6000000238418579 19.800000190734863 8.4000000953674299 33.800000309944153 5.900000035762786 8.500000059604643 2.600000023841857 3.300000011920929 10.40000009536743 6.2000000476837149 6.2000000476837158 11.000000119209291 4.3000001311302176 11.40000009536743 4.2000000476837149 3.5000000596046439 5.6000000238418561 15.000000238418577 4.8000000715255737 72.200000643730164 447.5000039935112 2.6000000238418579 31.000000238418579
leaf_count=8 11 45 9 6 5 10 6 4 31 14 52 8 12 4 4 16 9 9 18 12 17 7 7 7 29 9 110 682 4 45
internal_value=-3.89447e-05 -5.36438e-05 -0.000278596 -0.00100533 -0.00341456 -1.88024e-06 -0.000694002 -0.00310128 0.00039544 -0.000675963 0.000831939 -0.00178571 6.71947e-05 0.000300549 0.00109694 1.29324e-05 -0.00106922 -0.00174211 5.926e-05 0.000854569 0.00178567 0.00032452 8.69185e-06 0.000418062 -7.80921e-05 0.0019731 5.61878e-05 -2.34005e-05 -0.0044377 0.000699699
internal_weight=782.3 774.8 172.2 41.1 10.1 131.1 45.9 8.4 85.2 23.1 62.1 14.3 42.3 37.5 8.8 602.6 16.9 10.7 585.7 26.7 15.7 31 559 93 466 10.4 82.6 462.5 5.5 34.9
internal_count=1210 1199 266 67 15 199 69 14 130 35 95 22 64 55 13 933 26 17 907 47 29 52 860 142 718 16 126 711 9 51
is_linear=0
shrinkage=0.0324476


Tree=495
num_leaves=31
num_cat=0
split_feature=11 0 12 12 11 16 7 7 6 9 7 11 7 11 6 14 9 8 11 7 11 7 7 7 11 13 0 6 7 6
split_gain=0.00854381 0.00932289 0.010588 0.021584 0.0317224 0.0131077 0.0129709 0.0687047 0.0558875 0.0501879 0.0256508 0.0367507 0.036162 0.0289226 0.0271003 0.0223254 0.0154809 0.0589343 0.0218301 0.00961738 0.0160706 0.00762115 0.00866094 0.00771071 0.00570822 0.00146306 0.00138867 0.000557862 0.000442087 0.00034217
threshold=76687.187500000015 1.5000000000000002 32.500000000000007 1.8500000238418581 79234.265625000015 2.5000000000000004 77971.679687500015 77026.343750000015 3.5000000000000004 86708.437500000015 81393.480468750015 81471.726562500015 81495.628906250015 79780.816406250015 3.5000000000000004 84097.585937500015 97158.113281250015 84579.824218750015 83289.906250000015 86360.687500000015 80582.750000000015 74665.257812500015 80082.488281250015 94238.054687500015 80653.542968750015 99.500000000000014 3.5000000000000004 9.5000000000000018 84779.402343750015 9.5000000000000018
decision_type=2 2 2 2 2 2 2 2 2 2 2 2 2 2 2 2 2 2 2 2 2 2 2 2 2 2 2 2 2 2
left_child=26 21 3 -3 5 25 7 16 9 -9 11 13 -12 -8 -14 -13 18 -18 -4 20 -6 29 -23 28 -21 -5 -1 -10 -24 -2
right_child=1 2 6 4 19 -7 10 8 27 -11 12 15 14 -15 -16 -17 17 -19 -20 24 -22 22 23 -25 -26 -27 -28 -29 -30 -31
leaf_value=1.0607372520635985e-05 0 -0.0010387953996711748 -0.00048830154685425482 0.00017692266824474525 -0.0010319379109018543 -2.1256450095286143e-05 0.00042834653452899119 -0.00011973753059487843 0.00035102741053889006 -0.0040406463304201471 -0.0017504135550809334 0.0017610164253350413 0.0001876348161511413 -0.00091675806498571 -0.000367978238094477 0.00044138747814519462 0.00048651388499591563 -0.0022809857363623085 0.00029608693185931268 0.00085704417322050007 0.00029957497407472956 -0.0013971826610219588 0.00045525177544534812 -0.0007433376825600631 -0.00011889868205945294 0.0020882981462483951 0.0009292539634276803 -1.5906664886125926e-05 3.5794812233339283e-06 0.00034143527541494358
leaf_weight=3.3000000119209281 1.5000000596046477 2.3000000119209281 45.300000488758087 2.600000023841857 9.6000000238418597 3.900000035762786 25.500000298023224 5.8000000715255755 4.2000000476837149 3.9000000357627869 5.600000023841857 11.800000071525572 200.50000160932541 26.100000202655792 157.40000128746033 77.800000667572021 13.400000095367433 5.8000000715255728 114.80000114440918 7.800000071525572 13.900000154972075 5.8000001907348659 4.0000001192092878 3.0000001192092887 6.5000000596046448 7.4000000953674308 2.6000000238418579 2.9000000357627869 5.1000000834465027 2.2000000476837158
leaf_count=4 5 3 74 4 11 6 43 10 7 6 7 16 295 38 233 117 19 10 182 12 23 17 11 10 10 13 4 5 10 5
internal_value=-4.04687e-05 -5.47698e-05 -3.16368e-05 0.000373564 0.000577389 0.00155149 -6.73854e-05 -0.000285614 -0.00187704 -0.00285194 1.99203e-05 0.000379209 -0.000123977 -0.000278477 -5.84921e-05 0.0007533 -5.82148e-05 -0.000771364 5.88237e-05 0 -0.000359768 -0.000617807 -0.000842124 -9.80921e-05 0.000515968 0.00191707 0.000748056 0.000248979 0.000345945 0.000268177
internal_weight=782.3 776.4 754.8 54 51.7 13.9 700.8 196.1 16.8 9.7 504.7 141.2 363.5 51.6 357.9 89.6 179.3 19.2 160.1 37.8 23.5 21.6 17.9 12.1 14.3 10 5.9 7.1 9.1 3.7
internal_count=1210 1202 1144 82 79 23 1062 313 28 16 749 214 535 81 528 133 285 29 256 56 34 58 48 31 22 17 8 12 21 10
is_linear=0
shrinkage=0.0324476


Tree=496
num_leaves=31
num_cat=0
split_feature=11 14 7 11 6 7 7 5 11 12 6 9 15 15 15 6 1 5 9 9 12 17 7 7 15 17 1 13 12 16
split_gain=0.00843211 0.00905595 0.016187 0.0173525 0.0171074 0.0161206 0.0163483 0.018066 0.0159199 0.0139705 0.0219703 0.0376763 0.0298477 0.0591298 0.0551806 0.0777993 0.0530533 0.0507542 0.02808 0.0188006 0.0278813 0.0184394 0.0296543 0.0258571 0.021934 0.0108895 0.00986504 0.00854303 0.0119377 0.00838027
threshold=76687.187500000015 94191.445312500015 111693.44140625001 103426.26953125001 3.5000000000000004 85926.269531250015 75917.503906250015 1.0000000180025095e-35 83653.542968750015 55.000000000000007 6.5000000000000009 97158.113281250015 27.500000000000004 29.500000000000004 25.500000000000004 2.5000000000000004 -1.0000000180025095e-35 -1.0000000180025095e-35 86708.437500000015 71514.535156250015 95.000000000000014 1.0000000180025095e-35 74998.589843750015 77971.679687500015 23.500000000000004 1.5000000000000002 9.5000000000000018 99.500000000000014 95.000000000000014 1.5000000000000002
decision_type=2 2 2 2 2 2 2 2 2 2 2 2 2 2 2 2 2 2 2 2 2 2 2 2 2 2 2 2 2 2
left_child=-1 9 3 5 25 6 7 -3 -8 21 12 19 14 18 17 -16 -15 -11 -14 -12 -21 22 24 -23 -2 -4 -13 28 -7 -24
right_child=1 2 4 -5 -6 27 8 -9 -10 10 11 26 13 16 15 -17 -18 -19 -20 20 -22 23 29 -25 -26 -27 -28 -29 -30 -31
leaf_value=0.0007424480770577734 0.0018146348891170908 0.00018362374232595084 0.0021367045877252484 0.0012607142739891693 -0.00015066961892793877 -0.0011766687413501703 6.2637948826187998e-06 -0.0015451103190164094 0.00097821810826435353 0.00044551918850874623 -0.00030430962390417805 -0.00088197913578399556 -0.00027215499220185197 0.00079392472322967959 -0.00015663062923676217 -0.0038198701192005244 -0.00040088744643062928 -0.0005983553413433651 0.0022546805477233981 0.0013906567687341437 -8.9754784191771315e-05 -0.00025746675231490208 -0.00054686081690490844 0.0018541105156441519 -0.00020334549607684891 -1.5264003002162187e-05 0.00027785277200410142 2.565746322651528e-05 0.00017373501552938963 0.00023071295553576525
leaf_weight=5.900000035762786 5.800000071525572 10.700000107288359 2.800000071525572 2.900000035762786 6.1000000834465027 17.400000095367435 44.800000429153442 2.8000000715255728 22.100000202655792 60.40000057220459 11.600000143051146 20.800000190734867 3.8000000715255711 42.100000441074371 14.200000166893007 3.900000035762786 167.60000145435333 169.80000150203705 8.8000000715255737 33.70000034570694 17.600000143051147 6.800000071525572 41.70000034570694 6.9000000357627869 6.5000000596046448 2.6000000238418579 5.5000000596046439 16.100000083446503 6.2000000476837149 14.400000214576719
leaf_count=8 10 17 7 5 11 23 70 7 34 94 20 32 8 68 24 6 253 258 13 54 26 11 62 9 10 4 9 21 9 27
internal_value=-4.08984e-05 -5.51013e-05 0.000178798 3.47091e-05 0.00104127 -7.14044e-05 0.000189318 -0.000608928 0.000404708 -0.00010634 -0.000165213 0.0002815 -0.00025407 1.88377e-05 -0.000492579 -0.00191151 -0.000138247 -0.000316935 0.00166902 0.000692051 0.000934607 0.000269306 9.66544e-07 0.0010869 0.00107735 0.00169121 -0.000620163 -0.000548746 -0.000857203 -0.000337459
internal_weight=782.3 776.4 134.5 123 11.5 120.1 80.4 13.5 66.9 641.9 559.8 89.2 470.6 222.3 248.3 18.1 209.7 230.2 12.6 62.9 51.3 82.1 68.4 13.7 12.3 5.4 26.3 39.7 23.6 56.1
internal_count=1210 1202 208 186 22 181 128 24 104 994 865 141 724 342 382 30 321 352 21 100 80 129 109 20 20 11 41 53 32 89
is_linear=0
shrinkage=0.0324476


Tree=497
num_leaves=31
num_cat=0
split_feature=11 7 7 7 11 11 6 6 15 15 1 15 16 15 7 6 5 7 7 15 7 6 1 15 1 6 1 12 15 5
split_gain=0.00858165 0.0396679 0.0280638 0.0241523 0.0473067 0.0342656 0.0245574 0.0313721 0.0231579 0.052601 0.101447 0.0231932 0.0205096 0.0904996 0.102287 0.0249566 0.0202357 0.0495633 0.0262713 0.0184959 0.0174119 0.0583232 0.0528082 0.0428722 0.0356666 0.062764 0.0548421 0.0174095 0.016656 0.0163385
threshold=84471.722656250015 111693.44140625001 87350.441406250015 75917.503906250015 79234.265625000015 79188.808593750015 1.5000000000000002 5.5000000000000009 5.5000000000000009 7.5000000000000009 -1.0000000180025095e-35 3.5000000000000004 1.5000000000000002 41.500000000000007 159616.75390625003 2.5000000000000004 1.0000000180025095e-35 86750.121093750015 86750.121093750015 20.500000000000004 159616.75390625003 5.5000000000000009 9.5000000000000018 75.500000000000014 9.5000000000000018 4.5000000000000009 1.5000000000000002 72.500000000000014 133.50000000000003 -1.0000000180025095e-35
decision_type=2 2 2 2 2 2 2 2 2 2 2 2 2 2 2 2 2 2 2 2 2 2 2 2 2 2 2 2 2 2
left_child=1 2 3 4 5 -1 -5 27 11 10 -10 -2 20 14 15 -14 17 -15 -18 -3 24 22 -22 -23 26 -26 -11 -8 29 -6
right_child=8 19 -4 6 28 -7 7 -9 9 12 -12 -13 13 16 -16 -17 18 -19 -20 -21 21 23 -24 -25 25 -27 -28 -29 -30 -31
leaf_value=-0.00034147742463050954 -0.00048800880575135312 7.300530740570416e-05 -0.00081063161660678356 -0.00035870958312424114 0.00013403787059426212 0.001759454021240918 0.00020899692803409088 -0.00014188108737128792 -0.0039380063019112616 -0.00011662508769278835 0.00037928200507741548 0.0013019331591374713 -0.0010085982787860911 -0.0013965695099482955 -0.0045056673226828593 0.0008152653362575753 0.0014523780852586075 0.00032544921070967411 -0.0003398513500713499 0.0023811363773496826 0.0019551505100562144 0.00063597069109585223 -0.00088440232691957903 -0.0020856948910158392 0.0010173776092714519 -0.00058446625956149942 -0.0019042941546846721 0.0011737466553432994 0.00016748968415173754 -0.0022197862991327122
leaf_weight=17.600000143051151 5.8000000715255746 6.7000001072883588 29.70000022649765 38.800000309944153 2.3000000119209281 4.1000000834465018 36.70000034570694 49.000000476837158 2.600000023841857 249.30000227689743 9.1000000834465009 14.600000143051147 10.000000119209291 18.100000202655792 2.900000035762786 5.900000035762786 11.600000143051149 45.600000381469727 10.200000047683714 3.1000000834465027 20.200000166893009 5.800000071525572 3.600000023841857 4.5000000596046448 62.600000500679016 33.400000333786011 11.40000009536743 53.600000500679016 3.2000000476837149 10.300000131130217
leaf_count=26 10 13 43 57 3 9 57 77 4 383 14 23 17 30 5 8 20 68 13 8 30 10 5 8 92 53 17 83 6 18
internal_value=-3.81299e-05 0.000113298 3.53482e-06 0.0001432 -0.00052884 0.000419379 0.00030392 0.000500792 -0.00011272 -0.000161679 -0.00179598 0.000786027 -9.34014e-05 -0.000479419 -0.00211432 -0.000268927 3.10585e-05 -0.000263049 0.00073869 0.00158002 1.64968e-05 0.000639431 0.00139655 -0.000932616 -5.51892e-05 0.000454327 -0.000252415 0.000835943 -0.00154302 -0.00188947
internal_weight=782.3 255.1 245.3 215.6 37.5 21.7 178.1 139.3 527.2 506.8 11.7 20.4 495.1 104.3 18.8 15.9 85.5 63.7 21.8 9.8 390.8 34.1 23.8 10.3 356.7 96 260.7 90.3 15.8 12.6
internal_count=1210 400 379 336 62 35 274 217 810 777 18 33 759 161 30 25 131 98 33 21 598 53 35 18 545 145 400 140 27 21
is_linear=0
shrinkage=0.0324476


Tree=498
num_leaves=31
num_cat=0
split_feature=11 11 16 8 10 17 10 11 0 8 8 10 6 9 6 9 5 10 10 9 5 9 8 13 10 0 11 0 6 0
split_gain=0.00854591 0.0378102 0.0176476 0.0421969 0.0840084 0.0586198 0.0215712 0.0222705 0.0154672 0.0142915 0.0254977 0.0263488 0.0181994 0.052733 0.0682457 0.0517664 0.0475149 0.0453309 0.0557257 0.143472 0.0834422 0.0362215 0.0255447 0.0232597 0.0126234 0.0117066 0.0109539 0.00816511 0.00788774 0.00781736
threshold=84471.722656250015 83380.816406250015 1.5000000000000002 90926.269531250015 104565.07812500001 1.0000000180025095e-35 86008.796875000015 87289.906250000015 2.5000000000000004 117312.33593750001 138307.51953125003 104565.07812500001 3.5000000000000004 71514.535156250015 4.5000000000000009 66986.873046875015 1.0000000180025095e-35 81150.078125000015 97479.742187500015 86708.437500000015 -1.0000000180025095e-35 97158.113281250015 81562.632812500015 99.500000000000014 79235.242187500015 3.5000000000000004 92880.816406250015 2.5000000000000004 6.5000000000000009 2.5000000000000004
decision_type=2 2 2 2 2 2 2 2 2 2 2 2 2 2 2 2 2 2 2 2 2 2 2 2 2 2 2 2 2 2
left_child=1 -1 9 4 6 -6 7 8 -4 12 11 29 17 15 23 24 -16 21 19 -19 -20 22 -2 -15 -14 -5 -9 -23 -3 -11
right_child=2 28 3 25 5 -7 -8 26 -10 10 -12 -13 13 14 16 -17 -18 18 20 -21 -22 27 -24 -25 -26 -27 -28 -29 -30 -31
leaf_value=-2.7670692002073734e-05 -0.00022234999038094587 0.0015109792296679875 -0.0014857513923229699 -0.00015112697170034382 -0.004111477707212768 -9.9549754570903623e-05 0.0010284933411896526 0.00069482337167296163 -6.911679689903841e-05 -0.00056141623598793321 0.0006861587977783683 -0.002172552229088538 -0.00072876368910012787 -0.00030176428246364166 0.00054071670568431307 -0.0025781342065894484 -0.00088899522626346744 -0.00012761906854728909 -0.00074724009286372152 -0.0028484778373804097 0.0010612461705394721 -0.0012663987227243575 0.0012413961720868243 0.0018544040416788984 0.00045012559229244572 0.00095339235786203738 -0.00029950715567517362 0.00010439327167737882 0.00014253783935340696 0.00056693939350449432
leaf_weight=232.40000224113464 13.40000009536743 14.000000119209291 16.100000083446506 13.800000190734863 3.9000000357627851 6.5000000596046448 3.900000035762786 12.000000119209291 14.300000131130217 4.1000000834465045 3.900000035762786 5.2000000476837149 6.8000000715255799 3.3000000119209281 65.600000619888306 3.600000023841857 28.300000250339508 72.300000607967377 45.400000333786011 20.800000190734863 45.600000500679016 4.500000059604643 40.000000357627869 32.500000298023224 17.800000190734863 14.400000095367432 19.400000214576721 4.6000000238418579 8.7000001072883588 5.2000000476837158
leaf_count=364 19 21 21 25 6 10 6 19 22 9 6 8 11 4 102 5 43 108 65 32 75 8 61 50 29 20 32 6 15 8
internal_value=-3.93891e-05 0.000111734 -0.00011381 -0.000474981 -0.000850443 -0.00277978 -0.00026298 -0.00046173 -0.000986516 -1.64541e-05 -0.000744541 -0.00125531 3.00339e-05 0.000294416 0.000573883 -0.00081917 6.90339e-05 -0.000141851 -0.000397277 -0.000922231 0.000168156 0.000563699 0.000887491 0.00162782 1.14046e-05 0.000491033 0.000136778 -0.000832385 0.00117688 1.80943e-05
internal_weight=782.3 255.1 527.2 104.3 76.1 10.4 65.7 61.8 30.4 422.9 18.4 14.5 404.5 157.9 129.7 28.2 93.9 246.6 184.1 93.1 91 62.5 53.4 35.8 24.6 28.2 31.4 9.1 22.7 9.3
internal_count=1210 400 810 161 116 16 100 94 43 649 31 25 618 244 199 45 145 374 280 140 140 94 80 54 40 45 51 14 36 17
is_linear=0
shrinkage=0.0324476


Tree=499
num_leaves=31
num_cat=0
split_feature=11 7 7 7 11 11 7 7 11 16 17 7 8 7 7 6 6 8 7 7 6 10 6 10 11 6 7 16 17 0
split_gain=0.00848642 0.0390361 0.0266529 0.0229096 0.0237646 0.0204855 0.01823 0.0237333 0.0168882 0.0168778 0.0409433 0.0738099 0.0573344 0.0231996 0.0215256 0.110056 0.106631 0.204575 0.0701995 0.0587995 0.0585532 0.124355 0.118883 0.0578316 0.0475073 0.0458067 0.0426143 0.0927999 0.037775 0.0341224
threshold=84471.722656250015 111693.44140625001 87350.441406250015 73206.855468750015 83289.906250000015 81562.632812500015 82366.843750000015 79147.144531250015 81835.359375000015 1.5000000000000002 1.0000000180025095e-35 159616.75390625003 98965.328125000015 85926.269531250015 84088.066406250015 3.5000000000000004 2.5000000000000004 84579.824218750015 82935.437500000015 80926.269531250015 3.5000000000000004 82344.914062500015 2.5000000000000004 104565.07812500001 86885.781250000015 4.5000000000000009 84779.402343750015 1.0000000180025095e-35 1.0000000180025095e-35 2.5000000000000004
decision_type=2 2 2 2 2 2 2 2 2 2 2 2 2 2 2 2 2 2 2 2 2 2 2 2 2 2 2 2 2 2
left_child=1 2 3 5 6 -1 7 -5 -8 14 11 13 -13 -11 15 16 18 -18 19 -2 21 -16 -23 -24 26 -17 27 -22 -28 -26
right_child=9 -3 -4 4 -6 -7 8 -9 -10 10 -12 12 -14 -15 20 25 17 -19 -20 -21 24 22 23 -25 29 -27 28 -29 -30 -31
leaf_value=0.00013609771613346479 -0.00028613636720446246 0.00156472899140134 -0.00079238526781146631 0.00024801653220239624 0.001088251513751734 -0.0019932176060582663 0.0013192545122160133 -0.00051515364508669822 -0.00016885732159855964 -0.0010515352636556823 7.5352793490630643e-05 -0.0042559157627177751 3.5941843843913155e-05 0.00035307650463559326 0.0030980131504981068 0.0016029362418084571 0.00024304241060139203 -0.003856029523129184 -0.0020769937500906008 0.0013505870165446431 -0.0033127188503788863 -0.00067371109786194155 2.9065073337193638e-05 0.0025554792444231638 -0.00045139444085993665 0.00011158677242689122 0.00042646822892023216 0.0010188818583640154 -0.0013293846813312812 0.0014050350092567904
leaf_weight=6.800000071525572 82.10000079870224 9.8000001907348615 29.70000022649765 101.9000009894371 20.800000190734863 1.5000000596046446 13.200000166893007 61.900000512599945 9.500000059604643 13.000000119209288 62.000000596046448 2.900000035762786 4.2000000476837158 22.200000166893005 11.100000083446501 26.300000250339508 22.000000238418579 19.200000166893005 9.1000000834465009 22.800000190734863 8.1000000834465009 56.700000464916229 16.400000095367432 16.300000131130219 13.700000107288361 63.500000655651093 26.70000022649765 2.900000035762786 12.40000009536743 13.600000143051147
leaf_count=11 129 21 43 160 32 5 23 92 13 20 97 5 7 32 16 41 36 29 14 34 13 84 22 24 20 102 40 5 18 22
internal_value=-4.08416e-05 0.000109768 9.58732e-07 0.000137186 0.000223391 -0.00102951 8.28432e-05 -4.91262e-05 0.000805752 -0.000114987 -0.000468234 -0.00115425 -0.0030404 -0.000258556 -1.96776e-05 -0.000214807 -0.000725447 -0.00198533 -0.000163435 0.000139101 0.000244644 0.00073705 0.000202264 0.00155947 -0.000399799 0.000650648 -0.00094341 -0.00220423 -0.000257522 0.00057469
internal_weight=782.3 255.1 245.3 215.6 207.3 8.3 186.5 163.8 22.7 527.2 104.3 42.3 7.1 35.2 422.9 245 155.2 41.2 114 104.9 177.9 100.5 89.4 32.7 77.4 89.8 50.1 11 39.1 27.3
internal_count=1210 400 379 336 320 16 288 252 36 810 161 64 12 52 649 385 242 65 177 163 264 146 130 46 118 143 76 18 58 42
is_linear=0
shrinkage=0.0324476


Tree=500
num_leaves=31
num_cat=0
split_feature=14 7 7 6 9 9 8 15 12 7 12 15 15 7 15 15 7 15 7 11 15 8 7 15 15 17 11 7 7 17
split_gain=0.00818994 0.0105646 0.0675385 0.0612876 0.0461998 0.0179164 0.0523084 0.029587 0.0242418 0.0485532 0.0560754 0.031182 0.0778326 0.0306813 0.0111915 0.133969 0.081545 0.0336595 0.0322213 0.0524866 0.0484026 0.041037 0.031376 0.0537143 0.0534729 0.0448725 0.0253546 0.0423121 0.0265559 0.0218775
threshold=71744.753906250015 77971.679687500015 77026.343750000015 3.5000000000000004 86708.437500000015 97158.113281250015 84579.824218750015 59.500000000000007 95.000000000000014 75917.503906250015 119.00000000000001 7.5000000000000009 13.500000000000002 74998.589843750015 40.500000000000007 42.500000000000007 159616.75390625003 36.500000000000007 91676.695312500015 91883.128906250015 19.500000000000004 88199.000000000015 123822.71484375001 90.000000000000014 92.500000000000014 1.5000000000000002 89108.085937500015 99798.660156250015 84426.269531250015 1.0000000180025095e-35
decision_type=2 2 2 2 2 2 2 2 2 2 2 2 2 2 2 2 2 2 2 2 2 2 2 2 2 2 2 2 2 2
left_child=-1 2 5 4 -4 8 -7 -8 11 10 -10 13 -13 -2 17 16 -16 18 19 21 -21 -3 26 25 -25 -24 28 -28 -17 -19
right_child=1 14 3 -5 -6 6 7 -9 9 -11 -12 12 -14 -15 15 22 -18 29 -20 20 -22 -23 23 24 -26 -27 27 -29 -30 -31
leaf_value=0.00053209664531348561 0.00037283329525684571 -0.00010136699475055358 -0.00012909581331787341 0.00021156595027843297 -0.0038782218232602597 0.00039370915860073401 -0.0030384712007450938 0.00012272503599233882 -0.0025676115768574243 0.00019340196312869979 0.00081186683846958538 0.0020681960146144273 7.1101771686175392e-05 -0.0017461351767372169 1.1537351056816764e-05 8.5455624375964641e-05 -0.0044166435891495994 0.0015291671268642059 0.00065923370554989656 0.00030686403949088778 -0.0029493920783633587 0.0017156530594858741 0.0026124638997873581 -0.0022520789309990893 0.00043881672663432652 -0.00038922425246436416 0.0015401851552876882 -0.0006301831392521469 -0.00084921254272624026 -0.0003822463785346692
leaf_weight=17.100000202655792 9.0000001192092878 250.20000219345093 5.8000000715255755 9.3000001311302167 4.8000000715255737 13.700000107288362 2.600000023841857 3.2000000476837158 9.2000001668930036 33.500000298023224 2.600000023841857 17.900000154972076 100.50000101327896 6.5000000596046439 6.6000000238418561 61.700000584125519 3.6000000238418579 18.300000131130222 60.000000596046448 5.200000047683714 4.300000011920929 5.5000000596046439 11.000000119209288 1.3000000119209278 32.900000274181366 4.3000000119209281 13.100000083446504 10.40000009536743 54.000000476837158 4.2000000476837149
leaf_count=29 16 379 10 17 9 20 4 6 19 51 4 27 160 10 8 96 5 26 95 8 5 9 18 2 49 5 18 16 82 7
internal_value=-4.08186e-05 -5.96654e-05 -0.000245924 -0.00173279 -0.00280304 -3.18285e-05 -0.00080101 -0.0022214 8.15654e-05 -0.000508082 -0.00177663 0.000301656 0.000491454 -0.000798685 1.67096e-05 -0.000172393 -0.00280994 0.000127429 2.84428e-05 -0.000128545 -0.00183323 -8.26615e-06 8.04304e-05 0.000719848 -7.37873e-05 0.00191258 -0.00017207 0.000653997 -0.000375349 0.00115338
internal_weight=782.3 765.2 218.6 19.9 10.6 198.7 19.5 5.8 179.2 45.3 11.8 133.9 118.4 15.5 546.6 198.9 10.2 347.7 325.2 265.2 9.5 255.7 188.7 49.5 34.2 15.3 139.2 23.5 115.7 22.5
internal_count=1210 1181 353 36 19 317 30 10 287 74 23 213 187 26 828 299 13 529 496 401 13 388 286 74 51 23 212 34 178 33
is_linear=0
shrinkage=0.0324476


Tree=501
num_leaves=31
num_cat=0
split_feature=11 11 15 15 6 13 15 16 15 3 11 5 8 8 10 15 10 8 15 14 14 6 0 15 12 16 6 6 12 15
split_gain=0.00826976 0.0351047 0.0232934 0.0512935 0.0708871 0.0778318 0.0221686 0.018986 0.0857721 0.0608736 0.132232 0.0198506 0.0155973 0.024226 0.0248089 0.0236079 0.0351798 0.0289355 0.0137715 0.0128196 0.0117447 0.00776454 0.0075569 0.0140789 0.017675 0.0240372 0.0431592 0.0232031 0.0116826 0.0139262
threshold=84471.722656250015 83380.816406250015 5.5000000000000009 7.5000000000000009 3.5000000000000004 99.500000000000014 3.5000000000000004 1.5000000000000002 41.500000000000007 1.0000000180025095e-35 85880.816406250015 1.0000000180025095e-35 117312.33593750001 138307.51953125003 104565.07812500001 53.500000000000007 81150.078125000015 83199.000000000015 50.500000000000007 85915.765625000015 94191.445312500015 6.5000000000000009 3.5000000000000004 18.500000000000004 95.000000000000014 1.0000000180025095e-35 5.5000000000000009 5.5000000000000009 210.00000000000003 17.500000000000004
decision_type=2 2 2 2 2 2 2 2 2 2 2 2 2 2 2 2 2 2 2 2 2 2 2 2 2 2 2 2 2 2
left_child=1 22 6 4 5 -4 -2 12 9 10 -9 18 15 14 -14 16 -5 -17 -10 -13 -8 -3 28 24 25 -24 -27 -26 29 -1
right_child=2 21 3 7 -6 -7 20 8 11 -11 -12 19 13 -15 -16 17 -18 -19 -20 -21 -22 -23 23 -25 27 26 -28 -29 -30 -31
leaf_value=8.680157310590156e-05 -0.00046663569207601078 0.0014621295603000205 0.00035278644383890644 0.00053004906775602084 0.00076016044507616089 -0.004214845807268333 0.0015827899193153433 -0.0051504702986397083 0.00051903834520778671 0.00047906971174440201 -4.9228985764707414e-05 0.0010401126579921813 2.9579777306730306e-06 0.00065496008800057829 -0.0021335299055225561 -0.00046212433317990257 -0.00027082966056017599 0.00084579545494184753 -0.00048369398444944193 -0.000357676220419668 -0.00015875438794018745 0.00012543504954640704 -0.00071264425467291222 0.00046361312054757776 -0.0014632250492243521 0.0013252839260282279 -0.00082068808536531559 0.0001926811229673877 0.00078433137576718439 -0.00062721670422089969
leaf_weight=47.600000619888306 5.8000000715255746 14.000000119209291 3.9000000357627869 68.40000057220459 4.2000000476837158 3.6000000238418561 11.700000107288359 3.6000000238418606 11.200000166893004 4.900000035762786 10.300000131130217 17.500000178813938 9.3000001311302203 3.900000035762786 5.2000000476837149 17.600000143051147 225.30000203847885 61.100000560283661 52.500000417232513 4.3000000119209281 2.9000000357627878 8.7000001072883588 11.900000035762785 60.900000393390656 11.500000059604647 21.300000131130222 7.900000035762786 12.500000059604643 3.2000000476837149 55.600000858306885
leaf_count=84 10 21 6 102 7 5 18 5 21 7 18 28 17 6 8 26 345 94 77 5 5 15 14 84 15 29 10 16 6 106
internal_value=-4.26833e-05 0.000106005 -0.000115855 -0.000164917 -0.00177897 -0.0028773 0.000785623 -9.73891e-05 -0.00046873 -0.00206034 -0.00281702 2.83019e-05 8.45148e-06 -0.000749042 -0.0012439 6.23429e-05 -7.36525e-05 0.00053285 -0.00026276 0.000729407 0.00128827 0.00113238 -2.8211e-05 0.000136279 -0.000182606 0.000218576 0.000681667 -0.000761027 -0.000222037 -0.000312547
internal_weight=782.3 255.1 527.2 506.8 11.7 7.5 20.4 495.1 104.3 18.8 13.9 85.5 390.8 18.4 14.5 372.4 293.7 78.7 63.7 21.8 14.6 22.7 232.4 126 65.1 41.1 29.2 24 106.4 103.2
internal_count=1210 400 810 777 18 11 33 759 161 30 23 131 598 31 25 567 447 120 98 33 23 36 364 168 84 53 39 31 196 190
is_linear=0
shrinkage=0.0324476


Tree=502
num_leaves=31
num_cat=0
split_feature=14 7 6 11 7 7 11 12 15 1 15 8 11 15 6 11 11 15 7 7 15 10 6 7 9 7 17 7 7 15
split_gain=0.00810068 0.0155943 0.0163272 0.0161958 0.0148926 0.0147603 0.014497 0.0143189 0.020056 0.0666757 0.0909155 0.0716326 0.110422 0.0524216 0.0319969 0.0228323 0.03402 0.0317066 0.024413 0.0864926 0.0566563 0.0205361 0.0256819 0.0212493 0.0176202 0.0168943 0.0161196 0.0260785 0.0229018 0.021113
threshold=94191.445312500015 111693.44140625001 3.5000000000000004 103426.26953125001 85926.269531250015 75917.503906250015 83653.542968750015 72.500000000000014 14.500000000000002 -1.0000000180025095e-35 5.5000000000000009 84579.824218750015 84471.722656250015 13.500000000000002 3.5000000000000004 94386.484375000015 91380.812500000015 19.500000000000004 78471.726562500015 77026.343750000015 29.500000000000004 104565.07812500001 2.5000000000000004 111693.44140625001 80698.996093750015 76519.230468750015 1.0000000180025095e-35 74998.589843750015 77971.679687500015 23.500000000000004
decision_type=2 2 2 2 2 2 2 2 2 2 2 2 2 2 2 2 2 2 2 2 2 2 2 2 2 2 2 2 2 2
left_child=7 3 -3 4 5 -2 -7 26 9 10 -9 -12 -13 21 -15 16 18 -17 19 -10 -20 23 -23 -11 -16 -18 27 29 -28 -1
right_child=1 2 -4 -5 -6 6 -8 8 15 13 11 12 -14 14 24 17 25 -19 20 -21 -22 22 -24 -25 -26 -27 28 -29 -30 -31
leaf_value=0.0017663303780372716 -0.00057468806822900541 0.0016590742134628275 -0.00014310501723858416 0.0012205925399416612 -0.00052532071012486485 7.6027918764685194e-06 0.00093584982111844222 0.00046083230117730407 5.0987510162012744e-05 -0.00023351530504740986 0.00045276229059221262 -0.00010323280286524586 -0.0054594993098944717 0.00048438688703900936 -0.0028978391527889683 0.00054652759941530992 -0.0002841980755040095 -0.0018748978007717904 0.00078466543617585762 -0.0017527525513335864 -0.00020396493706859628 -0.00068354961862659926 0.0014534373214881607 0.0011881924117654675 -4.8406392730308422e-05 0.0015898643953177799 -0.0002654537861125014 -0.0002732593267662462 0.0016623889907336298 -0.00020682186919717131
leaf_weight=5.800000071525572 13.500000178813933 5.4000000953674299 6.1000000834465027 2.900000035762786 39.70000022649765 44.800000429153442 22.100000202655792 9.8000000715255755 111.80000114440918 78.200000643730164 3.3000000119209263 6.6000000238418579 4.6000000238418579 2.3000000119209272 3.9000000357627869 3.9999999999999982 3.4000000953674308 7.2000000476837158 83.10000079870224 28.70000034570694 175.80000150203705 2.3000000119209316 14.000000119209288 4.4000000953674308 3.5000000596046448 12.000000119209288 6.8000000715255728 61.000000596046448 8.800000071525572 6.5000000596046448
leaf_count=10 24 11 11 5 53 70 34 14 179 116 4 8 6 3 6 4 9 10 130 49 264 3 21 10 7 19 11 96 13 10
internal_value=-4.33321e-05 0.000177917 0.00102455 3.62707e-05 -6.63128e-05 0.000184014 0.000388532 -9.15051e-05 -0.000153283 -0.000488803 -0.00177754 -0.00292434 -0.00370803 -9.17184e-05 -0.00170983 -4.04232e-05 9.48327e-06 -0.00112621 -5.92765e-05 -0.00039201 0.000126447 0.000183356 0.00100798 -5.22884e-05 -0.0023113 0.00120563 0.000272998 2.61924e-05 0.00100576 0.00104181
internal_weight=782.3 134.5 11.5 123 120.1 80.4 66.9 647.8 558.9 132.9 24.3 14.5 11.2 108.6 9.7 426 414.8 11.2 399.4 140.5 258.9 98.9 16.3 82.6 7.4 15.4 88.9 73.3 15.6 12.3
internal_count=1210 208 22 186 181 128 104 1002 862 198 32 18 14 166 16 664 650 14 622 228 394 150 24 126 13 28 140 116 24 20
is_linear=0
shrinkage=0.0324476


Tree=503
num_leaves=31
num_cat=0
split_feature=11 7 7 7 11 11 17 6 6 15 15 6 13 15 15 0 7 7 15 15 6 6 5 11 7 11 6 12 14 7
split_gain=0.00814912 0.0367248 0.0249017 0.0231371 0.04442 0.0329572 0.0227112 0.0223946 0.0288959 0.0221812 0.0490516 0.0683466 0.0750218 0.0214499 0.0193924 0.0193863 0.0145471 0.164424 0.0245524 0.0403087 0.0296464 0.0204593 0.0391857 0.0236156 0.0184827 0.0145429 0.0124792 0.0122925 0.0111778 0.010012
threshold=84471.722656250015 111693.44140625001 87350.441406250015 75917.503906250015 79234.265625000015 79188.808593750015 1.0000000180025095e-35 1.5000000000000002 5.5000000000000009 5.5000000000000009 7.5000000000000009 3.5000000000000004 99.500000000000014 3.5000000000000004 20.500000000000004 3.5000000000000004 77026.343750000015 77471.726562500015 68.500000000000014 56.500000000000007 6.5000000000000009 3.5000000000000004 -1.0000000180025095e-35 84779.402343750015 72057.414062500015 86108.085937500015 5.5000000000000009 25.000000000000004 94191.445312500015 79159.222656250015
decision_type=2 2 2 2 2 2 2 2 2 2 2 2 2 2 2 2 2 2 2 2 2 2 2 2 2 2 2 2 2 2
left_child=1 2 3 4 5 -1 -6 -5 15 13 11 12 -11 -2 26 -9 18 -18 19 20 -12 23 -23 -19 -20 -26 -3 -4 29 -15
right_child=9 14 27 7 6 -7 -8 8 -10 10 16 -13 -14 28 -16 -17 17 21 24 -21 -22 22 -24 -25 25 -27 -28 -29 -30 -31
leaf_value=-0.00034628733121634182 -0.00046340643594307599 -0.00064318574794791433 0.00016418054651876502 -0.00034339881900157123 -0.0020904790110079542 0.0017118870070202653 6.3466728852639435e-05 0.0002357432190825936 -0.00013901517653228557 0.00034749848311773458 -0.00010365040866938505 0.0007486350606704347 -0.0041340109954912212 0.00010944085984810232 0.0023335933498051936 0.0012192174988831786 -0.0039730998216019435 0.00034273356200514648 -0.0011823364928902746 0.0019634372500511297 0.0012993563337487016 0.00063785114375603544 -0.00057498209802522588 -0.00039957744841775722 0.0010353401561945207 -0.00043669354651419803 0.00086628980213951726 -0.0010816802092669612 -0.00015299794359141612 0.0020049302594328739
leaf_weight=17.600000143051151 5.8000000715255746 4.500000059604643 8.2000000476837176 38.800000309944153 9.7000001072883588 4.1000000834465018 6.1000000834465018 44.500000536441803 49.000000476837158 3.9000000357627869 82.10000079870224 4.2000000476837158 3.6000000238418561 5.500000059604643 3.1000000834465027 45.800000309944153 3.5000000596046439 151.30000132322311 12.900000154972078 7.2000000476837149 11.000000119209288 27.500000298023224 132.00000107288361 54.800000429153442 4.1000000834465018 8.7000001072883588 2.2000000476837158 21.500000178813934 2.9000000357627878 6.2000000476837158
leaf_count=26 10 8 11 57 16 9 11 76 77 6 129 7 5 9 8 64 7 229 22 10 18 45 195 80 9 15 5 32 5 9
internal_value=-4.23568e-05 0.000105237 0 0.000131461 -0.000525761 0.000395582 -0.00150754 0.000289062 0.000477144 -0.000114995 -0.000162859 -0.00174133 -0.00282052 0.000764713 0.00151645 0.000798876 -9.67776e-05 -0.000199162 0.000194145 0.000424423 0.000151037 -7.48209e-05 -0.00034248 0.000135804 -0.000577971 0.000238586 3.23999e-05 -0.000767067 0.00126008 0.00154728
internal_weight=782.3 255.1 245.3 215.6 37.5 21.7 15.8 178.1 139.3 527.2 506.8 11.7 7.5 20.4 9.8 90.3 495.1 369.1 126 100.3 93.1 365.6 159.5 206.1 25.7 12.8 6.7 29.7 14.6 11.7
internal_count=1210 400 379 336 62 35 27 274 217 810 777 18 11 33 21 140 759 556 203 157 147 549 240 309 46 24 13 43 23 18
is_linear=0
shrinkage=0.0324476


Tree=504
num_leaves=31
num_cat=0
split_feature=14 0 6 5 12 6 9 6 10 10 7 16 10 7 7 5 12 8 9 12 10 7 12 6 16 5 6 12 16 12
split_gain=0.00836289 0.0152321 0.024596 0.0153979 0.0139861 0.0200143 0.035589 0.0213539 0.0970175 0.0442018 0.0484938 0.0736799 0.0300839 0.029814 0.0236425 0.0198111 0.0197798 0.0186132 0.0179823 0.0273241 0.0140598 0.0138991 0.0138092 0.0127045 0.0133158 0.0123754 0.0105255 0.0181292 0.0182218 0.0129341
threshold=94191.445312500015 2.5000000000000004 2.5000000000000004 -1.0000000180025095e-35 72.500000000000014 6.5000000000000009 97158.113281250015 4.5000000000000009 55117.851562500007 81150.078125000015 83355.019531250015 1.5000000000000002 82344.914062500015 66816.148437500015 77971.679687500015 1.0000000180025095e-35 77.500000000000014 84579.824218750015 71514.535156250015 95.000000000000014 83071.011718750015 75917.503906250015 3.5000000000000004 1.5000000000000002 1.5000000000000002 1.0000000180025095e-35 5.5000000000000009 72.500000000000014 2.5000000000000004 47.500000000000007
decision_type=2 2 2 2 2 2 2 2 2 2 2 2 2 2 2 2 2 2 2 2 2 2 2 2 2 2 2 2 2 2
left_child=4 21 -3 -4 22 7 18 9 17 10 13 -12 -11 -6 -14 16 -10 -9 -7 -20 -8 25 -1 24 -24 -2 27 29 -29 -23
right_child=1 2 3 -5 5 6 20 8 15 12 11 -13 14 -15 -16 -17 -18 -19 19 -21 -22 26 23 -25 -26 -27 -28 28 -30 -31
leaf_value=-0.0007880614590956345 0.00012391454875676944 -0.0003413121142609035 -0.00014505728719107011 0.0014147806891237171 0.00098974840711715654 -0.00029320299606183929 0.00050351765770657311 -0.00020297682233696879 -0.00094628331651859597 -0.0018494617016455329 0.0024555892210745204 -0.00094076216558075488 -0.00071026082716999276 -0.00038162215972731875 -6.2412925867810518e-05 0.00048603709693939193 0.00023487716038138993 -0.0037757036951879875 0.0013825462202562691 -8.8462593354162564e-05 -0.00088550211283826676 0.0004612006145819772 0.0010813911447925064 5.8548999052534435e-05 -0.00035020988458186195 -0.0015776529169566642 -0.00033310122753916073 0.001175247952146373 -0.00029921634969407262 -0.00070449649836545338
leaf_weight=3.900000035762786 5.2000000476837149 13.600000143051146 6.2000000476837185 21.600000381469727 15.100000083446501 11.600000143051146 3.9000000357627895 3.2000000476837149 31.600000262260437 4.8000000715255728 15.000000119209291 4.2000000476837149 73.500000774860382 50.000000476837158 228.50000196695328 23.000000238418579 18.800000190734863 3 32.70000034570694 17.600000143051147 22.400000214576721 9.5000000596046448 25.700000226497654 55.40000057220459 3.900000035762786 2.5000000596046448 29.800000190734863 22.500000178813938 7.900000035762786 15.700000107288361
leaf_count=6 8 22 9 44 20 20 6 6 47 9 22 7 119 78 344 37 30 3 53 26 35 13 39 89 6 6 41 33 10 22
internal_value=-4.12853e-05 0.000183504 0.000643281 0.0011031 -9.02544e-05 -0.000151317 0.000277333 -0.000235825 -0.00069529 -0.000128895 0.000496377 0.00163942 -0.00031042 7.17975e-06 -0.00023604 -0.000188864 -0.000528354 -0.00312817 0.000680983 0.000921719 -0.000597455 -5.31128e-05 0.000269967 0.00038818 0.00084757 -0.000936421 9.82849e-05 0.000348558 0.00080039 -0.0002485
internal_weight=782.3 134.5 41.4 27.8 647.8 558.9 88.2 470.7 79.6 391.1 84.3 19.2 306.8 65.1 302 73.4 50.4 6.2 61.9 50.3 26.3 93.1 88.9 85 29.6 7.7 85.4 55.6 30.4 25.2
internal_count=1210 208 75 53 1002 862 140 722 123 599 127 29 472 98 463 114 77 9 99 79 41 133 140 134 45 14 119 78 43 35
is_linear=0
shrinkage=0.0324476


Tree=505
num_leaves=31
num_cat=0
split_feature=14 14 11 12 6 9 15 15 15 1 1 1 9 9 12 17 16 11 12 5 15 16 15 15 0 11 0 1 11 12
split_gain=0.00800045 0.00932074 0.0153175 0.0135791 0.0212476 0.033651 0.0307201 0.0564662 0.0528484 0.058436 0.0573364 0.0506277 0.0262271 0.0171403 0.0259604 0.0165853 0.0212395 0.0224711 0.0181516 0.0130119 0.0138047 0.0122159 0.022206 0.0174966 0.0130468 0.0118934 0.00904508 0.00889615 0.00831385 0.00802037
threshold=71744.753906250015 94191.445312500015 78312.632812500015 72.500000000000014 6.5000000000000009 97158.113281250015 27.500000000000004 29.500000000000004 24.500000000000004 -1.0000000180025095e-35 9.5000000000000018 -1.0000000180025095e-35 86708.437500000015 71514.535156250015 95.000000000000014 1.0000000180025095e-35 1.0000000180025095e-35 79234.265625000015 25.000000000000004 -1.0000000180025095e-35 96.500000000000014 3.5000000000000004 56.500000000000007 22.500000000000004 1.5000000000000002 80062.632812500015 2.5000000000000004 9.5000000000000018 91883.128906250015 72.500000000000014
decision_type=2 2 2 2 2 2 2 2 2 2 2 2 2 2 2 2 2 2 2 2 2 2 2 2 2 2 2 2 2 2
left_child=28 3 -3 15 6 13 8 12 9 -5 -10 -9 -8 -6 -15 16 -2 18 -18 -17 -21 22 23 -4 -24 -19 -7 -25 -1 -26
right_child=1 2 21 4 5 26 7 11 10 -11 -12 -13 -14 14 -16 19 17 25 -20 20 -22 -23 24 27 29 -27 -28 -29 -30 -31
leaf_value=0 -0.00073585992357968241 -0.0008909472425199785 0.00048547319051026673 -0.0013262932546516414 -0.0002876523664828759 0.00027266380426758236 -0.00025587829092176966 0.00077142930904838889 -0.0023457359966489247 -3.6466326870507135e-05 0.0006652338595493515 -0.00039719327133863445 0.0021937200493636049 0.001346751926144067 -8.6510736961840291e-05 -0.00033706859296811845 -0.00029648485112212652 -0.00081315535581400204 0.001458729873049607 0.0017465403947899874 -0.00013632223594067379 -0.00056646552563719397 -0.00021393197101663767 -0.00072095225264606148 8.3617383878758041e-05 0.00025828032043161104 -0.00083257834745365477 9.2437154297932784e-05 0.0011558951224560226 0.001461541758303512
leaf_weight=13.600000143051149 19.200000166893005 4.900000035762786 43.700000464916229 38.800000309944153 11.600000143051146 5.5000000596046474 3.8000000715255711 42.100000441074371 19.500000178813938 177.80000162124634 4.5000000596046439 165.70000141859055 8.8000000715255737 32.70000034570694 17.600000143051147 2.3000000119209281 4.8000000715255746 10.100000083446504 14.100000202655792 8.200000047683714 3.5000000596046439 8.9000000357627851 5.0000001192092887 21.900000154972076 7.2000000476837185 19.300000131130219 20.800000190734863 22.200000166893005 3.5000000596046439 20.70000022649765
leaf_count=22 29 7 71 57 20 9 8 68 30 273 8 249 13 53 26 3 9 15 26 11 7 11 12 31 10 27 32 32 7 34
internal_value=-4.15022e-05 -6.01227e-05 0.00017687 -0.000112885 -0.000171704 0.000269807 -0.000260243 1.64857e-05 -0.000507353 -0.000309515 -0.00174377 -0.000138208 0.00162857 0.000662374 0.000897541 0.000258585 0 0.000363602 0.00104469 0.0010262 0.00134153 0.000271046 0.000368109 6.55035e-05 0.000991006 -0.0001977 -0.000580687 -0.000354479 0.000524738 0.00121682
internal_weight=782.3 765.2 134.5 630.7 549.2 88.2 461 220.4 240.6 216.6 24 207.8 12.6 61.9 50.3 81.5 67.5 48.3 18.9 14 11.7 129.6 120.7 87.8 32.9 29.4 26.3 44.1 17.1 27.9
internal_count=1210 1181 208 973 846 140 706 338 368 330 38 317 21 99 79 127 106 77 35 21 18 201 190 134 56 42 41 63 29 44
is_linear=0
shrinkage=0.0324476


Tree=506
num_leaves=31
num_cat=0
split_feature=14 7 7 7 1 16 6 15 15 16 6 15 11 7 0 11 15 15 15 15 6 9 15 14 1 9 15 0 10 1
split_gain=0.0078035 0.00985081 0.0648433 0.060066 0.0170905 0.0516105 0.0405954 0.033399 0.0639604 0.0581013 0.0341516 0.0292044 0.0243226 0.0236886 0.0138044 0.0300125 0.0370332 0.0639643 0.133525 0.0404347 0.0375329 0.0359558 0.030916 0.0188284 0.013455 0.0503644 0.0491616 0.0810272 0.035664 0.026517
threshold=71744.753906250015 77971.679687500015 77026.343750000015 77275.933593750015 -1.0000000180025095e-35 1.0000000180025095e-35 4.5000000000000009 16.500000000000004 20.500000000000004 1.0000000180025095e-35 3.5000000000000004 36.500000000000007 79188.808593750015 61973.382812500007 3.5000000000000004 93653.542968750015 15.500000000000002 40.500000000000007 42.500000000000007 13.500000000000002 5.5000000000000009 89923.683593750015 19.500000000000004 84097.585937500015 -1.0000000180025095e-35 86708.437500000015 26.500000000000004 2.5000000000000004 85017.179687500015 9.5000000000000018
decision_type=2 2 2 2 2 2 2 2 2 2 2 2 2 2 2 2 2 2 2 2 2 2 2 2 2 2 2 2 2 2
left_child=-1 2 4 -4 5 6 11 12 10 -10 -9 -2 -6 -14 24 16 19 21 -19 23 -21 -18 -17 -16 25 -3 27 -27 -28 -26
